{"learner":{"attributes":{"best_iteration":"299","best_ntree_limit":"300","scikit_learn":"{\"n_estimators\": 300, \"objective\": \"reg:squarederror\", \"max_depth\": 5, \"max_leaves\": null, \"max_bin\": null, \"grow_policy\": null, \"learning_rate\": 0.1, \"verbosity\": null, \"booster\": null, \"tree_method\": null, \"gamma\": null, \"min_child_weight\": 3, \"max_delta_step\": null, \"subsample\": 0.8, \"sampling_method\": null, \"colsample_bytree\": 0.8, \"colsample_bylevel\": null, \"colsample_bynode\": null, \"reg_alpha\": null, \"reg_lambda\": null, \"scale_pos_weight\": null, \"base_score\": null, \"missing\": NaN, \"num_parallel_tree\": null, \"random_state\": 42, \"n_jobs\": null, \"monotone_constraints\": null, \"interaction_constraints\": null, \"importance_type\": null, \"gpu_id\": null, \"validate_parameters\": null, \"predictor\": null, \"enable_categorical\": false, \"feature_types\": null, \"max_cat_to_onehot\": null, \"max_cat_threshold\": null, \"eval_metric\": null, \"early_stopping_rounds\": null, \"callbacks\": null, \"_estimator_type\": \"regressor\"}"},"feature_names":[],"feature_types":[],"gradient_booster":{"model":{"gbtree_model_param":{"num_parallel_tree":"1","num_trees":"300","size_leaf_vector":"0"},"tree_info":[0,0,0,0,0,0,0,0,0,0,0,0,0,0,0,0,0,0,0,0,0,0,0,0,0,0,0,0,0,0,0,0,0,0,0,0,0,0,0,0,0,0,0,0,0,0,0,0,0,0,0,0,0,0,0,0,0,0,0,0,0,0,0,0,0,0,0,0,0,0,0,0,0,0,0,0,0,0,0,0,0,0,0,0,0,0,0,0,0,0,0,0,0,0,0,0,0,0,0,0,0,0,0,0,0,0,0,0,0,0,0,0,0,0,0,0,0,0,0,0,0,0,0,0,0,0,0,0,0,0,0,0,0,0,0,0,0,0,0,0,0,0,0,0,0,0,0,0,0,0,0,0,0,0,0,0,0,0,0,0,0,0,0,0,0,0,0,0,0,0,0,0,0,0,0,0,0,0,0,0,0,0,0,0,0,0,0,0,0,0,0,0,0,0,0,0,0,0,0,0,0,0,0,0,0,0,0,0,0,0,0,0,0,0,0,0,0,0,0,0,0,0,0,0,0,0,0,0,0,0,0,0,0,0,0,0,0,0,0,0,0,0,0,0,0,0,0,0,0,0,0,0,0,0,0,0,0,0,0,0,0,0,0,0,0,0,0,0,0,0,0,0,0,0,0,0,0,0,0,0,0,0,0,0,0,0,0,0,0,0,0,0,0,0,0,0,0,0,0,0],"trees":[{"base_weights":[7.902469E1,6.708419E1,8.596214E1,5.854703E1,7.219175E1,8.048063E1,9.01475E1,5.2817257E1,6.2762478E1,6.596665E1,7.824539E1,7.586554E1,8.498115E1,8.078274E1,9.135754E1,3.1492937E1,5.4503242E1,5.318431E1,6.550239E1,7.1824814E1,6.0362083E1,8.127108E1,7.107616E1,7.2688484E1,8.3208626E1,7.8583694E1,8.753942E1,6.1215305E1,8.25712E1,8.6687614E1,9.315649E1,3.692404E1,2.1427788E1,5.0325436E1,6.0449345E1,3.856608E1,5.58533E1,5.7565273E1,6.869521E1,6.397089E1,7.5833015E1,5.302647E1,6.4618065E1,7.438008E1,8.385065E1,6.0697407E1,7.415712E1,7.7982895E1,6.75081E1,5.5583065E1,8.384575E1,3.3653843E1,7.905487E1,9.038491E1,8.292607E1,8.131967E1,8.9417725E1,7.494885E1,9.350744E1],"categories":[],"categories_nodes":[],"categories_segments":[],"categories_sizes":[],"default_left":[1,1,1,1,1,1,1,1,1,1,1,1,1,1,1,1,1,1,1,1,1,1,1,1,1,1,1,0,0,1,1,0,0,0,0,0,0,0,0,0,0,0,0,0,0,0,0,0,0,0,0,0,0,0,0,0,0,0,0],"id":0,"left_children":[1,3,5,7,9,11,13,15,17,19,21,23,25,27,29,31,33,35,37,39,41,43,45,47,49,51,53,-1,-1,55,57,-1,-1,-1,-1,-1,-1,-1,-1,-1,-1,-1,-1,-1,-1,-1,-1,-1,-1,-1,-1,-1,-1,-1,-1,-1,-1,-1,-1],"loss_changes":[6.33152E5,1.19564E5,1.04588E5,2.2481E4,6.1616E4,3.7587E4,2.385E4,1.478575E4,1.25245E4,2.4557E4,1.3595E4,1.8587E4,1.05505E4,6.28375E3,1.2364E4,1.1767344E3,7.490625E3,3.3471875E3,7.95625E3,8.528E3,1.0809875E4,4.802E3,4.228375E3,1.516875E4,8.3125E2,3.987E3,2.377E3,0E0,0E0,2.855E3,4.129E3,0E0,0E0,0E0,0E0,0E0,0E0,0E0,0E0,0E0,0E0,0E0,0E0,0E0,0E0,0E0,0E0,0E0,0E0,0E0,0E0,0E0,0E0,0E0,0E0,0E0,0E0,0E0,0E0],"parents":[2147483647,0,0,1,1,2,2,3,3,4,4,5,5,6,6,7,7,8,8,9,9,10,10,11,11,12,12,13,13,14,14,15,15,16,16,17,17,18,18,19,19,20,20,21,21,22,22,23,23,24,24,25,25,26,26,29,29,30,30],"right_children":[2,4,6,8,10,12,14,16,18,20,22,24,26,28,30,32,34,36,38,40,42,44,46,48,50,52,54,-1,-1,56,58,-1,-1,-1,-1,-1,-1,-1,-1,-1,-1,-1,-1,-1,-1,-1,-1,-1,-1,-1,-1,-1,-1,-1,-1,-1,-1,-1,-1],"split_conditions":[-5.922998E-1,-8.575188E-1,2.1171537E-1,-2.0503256E-1,-9.724703E-3,-9.724703E-3,-3.282069E-1,-1.4268053E0,-2.0992205E0,-2.238717E-2,6.708928E-1,6.7681473E-1,-4.236157E-1,-1.3768797E0,-5.956483E-1,6.708928E-1,-1.3236365E0,-1.1886551E0,-5.442466E-1,-9.933344E-1,-9.696858E-1,-7.055184E-1,-7.9811996E-1,-2.238717E-2,-1.5357559E0,-2.0756779E0,3.242528E-1,6.1215305E0,8.25712E0,-3.7025577E-1,-2.0921469E0,3.6924043E0,2.1427789E0,5.0325437E0,6.0449347E0,3.856608E0,5.58533E0,5.7565274E0,6.8695216E0,6.397089E0,7.5833015E0,5.302647E0,6.461807E0,7.4380083E0,8.385065E0,6.069741E0,7.415712E0,7.79829E0,6.75081E0,5.5583067E0,8.384575E0,3.3653843E0,7.905487E0,9.038491E0,8.292607E0,8.131968E0,8.941772E0,7.4948854E0,9.350744E0],"split_indices":[44,47,44,42,42,42,47,26,47,36,36,7,47,42,42,36,47,44,26,44,44,35,26,36,26,24,36,0,0,7,26,0,0,0,0,0,0,0,0,0,0,0,0,0,0,0,0,0,0,0,0,0,0,0,0,0,0,0,0],"split_type":[0,0,0,0,0,0,0,0,0,0,0,0,0,0,0,0,0,0,0,0,0,0,0,0,0,0,0,0,0,0,0,0,0,0,0,0,0,0,0,0,0,0,0,0,0,0,0,0,0,0,0,0,0,0,0,0,0,0,0],"sum_hessian":[7.712E3,2.838E3,4.874E3,1.067E3,1.771E3,2.119E3,2.755E3,4.58E2,6.09E2,8.79E2,8.92E2,1.055E3,1.064E3,3.23E2,2.432E3,3.5E1,4.23E2,1.4E2,4.69E2,4.24E2,4.55E2,6.2E2,2.72E2,7.44E2,3.11E2,3.13E2,7.51E2,3E1,2.93E2,6.9E2,1.742E3,2.1E1,1.4E1,2.54E2,1.69E2,2.4E1,1.16E2,1.4E2,3.29E2,1.49E2,2.75E2,1.72E2,2.83E2,1.77E2,4.43E2,6.7E1,2.05E2,3.61E2,3.83E2,9E0,3.02E2,4E0,3.09E2,4.53E2,2.98E2,2.43E2,4.47E2,3.7E1,1.705E3],"tree_param":{"num_deleted":"0","num_feature":"49","num_nodes":"59","size_leaf_vector":"0"}},{"base_weights":[7.122427E1,5.3694206E1,8.0630516E1,4.1689884E1,5.9609993E1,7.32496E1,8.618902E1,3.2080254E1,4.5847275E1,6.448013E1,5.6312687E1,7.682131E1,6.819821E1,8.26133E1,8.90795E1,2.2830364E1,3.5796112E1,4.923904E1,3.8461422E1,5.749615E1,6.836505E1,5.0176273E1,5.9478897E1,7.3689644E1,8.1053345E1,6.3980988E1,7.342278E1,8.624736E1,7.9247086E1,1.1764296E1,2.477293E1,4.0454647E1,3.1990217E1,4.556335E1,5.2566032E1,4.415098E1,3.5707676E1,6.386315E1,7.307055E1,4.5371033E1,5.377579E1,6.1846558E1,5.3935116E1,7.9073784E1,7.174464E1,8.573181E1,7.829928E1,5.8946877E1,6.625208E1,7.727033E1,8.433074E1],"categories":[],"categories_nodes":[],"categories_segments":[],"categories_sizes":[],"default_left":[1,1,1,1,1,1,1,1,1,1,1,1,1,1,0,1,1,1,1,0,1,1,1,1,1,1,0,0,1,0,0,0,0,0,0,0,0,0,0,0,0,0,0,0,0,0,0,0,0,0,0],"id":1,"left_children":[1,3,5,7,9,11,13,15,17,19,21,23,25,27,-1,29,31,33,35,-1,37,39,41,43,45,47,-1,-1,49,-1,-1,-1,-1,-1,-1,-1,-1,-1,-1,-1,-1,-1,-1,-1,-1,-1,-1,-1,-1,-1,-1],"loss_changes":[1.26682E6,1.889E5,1.99438E5,3.42055E4,2.53225E4,3.3749E4,2.215E4,8.566094E3,1.3663E4,1.56315E4,1.80575E4,1.07E4,1.52205E4,8.945E3,0E0,1.4497852E3,2.1277344E3,2.765625E3,1.557E3,0E0,5.0355E3,4.046375E3,5.97025E3,2.0135E3,5.15E1,1.9025E3,0E0,0E0,3.37E2,0E0,0E0,0E0,0E0,0E0,0E0,0E0,0E0,0E0,0E0,0E0,0E0,0E0,0E0,0E0,0E0,0E0,0E0,0E0,0E0,0E0,0E0],"parents":[2147483647,0,0,1,1,2,2,3,3,4,4,5,5,6,6,7,7,8,8,9,9,10,10,11,11,12,12,13,13,15,15,16,16,17,17,18,18,20,20,21,21,22,22,23,23,24,24,25,25,28,28],"right_children":[2,4,6,8,10,12,14,16,18,20,22,24,26,28,-1,30,32,34,36,-1,38,40,42,44,46,48,-1,-1,50,-1,-1,-1,-1,-1,-1,-1,-1,-1,-1,-1,-1,-1,-1,-1,-1,-1,-1,-1,-1,-1,-1],"split_conditions":[-2.9250532E-1,-1.3211184E0,5.3531337E-1,-2.0761185E0,-8.065207E-1,2.6471043E-1,9.490246E-1,-2.628688E0,-9.934716E-1,-9.875946E-1,-7.923038E-1,1.5440586E-1,2.7316874E-1,6.9202447E-1,8.90795E0,-3.3657205E0,-2.0772226E0,-1.6817751E0,-1.4439199E0,5.749615E0,1.8558316E-1,-3.061095E-1,8.464097E-2,-7.17013E-1,-3.2020342E-1,-7.9095614E-1,7.3422785E0,8.624736E0,6.725086E-1,1.1764296E0,2.477293E0,4.045465E0,3.1990218E0,4.556335E0,5.2566032E0,4.415098E0,3.5707676E0,6.3863153E0,7.307055E0,4.537103E0,5.377579E0,6.1846557E0,5.393512E0,7.9073787E0,7.1744637E0,8.573181E0,7.829928E0,5.8946877E0,6.6252084E0,7.727033E0,8.433074E0],"split_indices":[48,48,48,48,47,47,48,48,47,48,48,48,48,47,0,48,47,48,19,0,42,26,47,47,47,42,0,0,25,0,0,0,0,0,0,0,0,0,0,0,0,0,0,0,0,0,0,0,0,0,0],"split_type":[0,0,0,0,0,0,0,0,0,0,0,0,0,0,0,0,0,0,0,0,0,0,0,0,0,0,0,0,0,0,0,0,0,0,0,0,0,0,0,0,0,0,0,0,0,0,0,0,0,0,0],"sum_hessian":[7.708E3,2.694E3,5.014E3,8.92E2,1.802E3,2.16E3,2.854E3,2.72E2,6.2E2,7.2E2,1.082E3,1.257E3,9.03E2,1.289E3,1.565E3,8E1,1.92E2,4.21E2,1.99E2,2.63E2,4.57E2,3.74E2,7.08E2,7.33E2,5.24E2,5.07E2,3.96E2,6.08E2,6.81E2,1.3E1,6.7E1,8.2E1,1.1E2,2.07E2,2.14E2,6E1,1.39E2,2.41E2,2.16E2,1.66E2,2.08E2,4.89E2,2.19E2,1.84E2,5.49E2,1.83E2,3.41E2,1.66E2,3.41E2,5.02E2,1.79E2],"tree_param":{"num_deleted":"0","num_feature":"49","num_nodes":"51","size_leaf_vector":"0"}},{"base_weights":[6.42282E1,5.033664E1,7.380858E1,3.848978E1,5.5839138E1,6.820212E1,7.8576546E1,2.5103336E1,4.110181E1,5.1895195E1,5.9339275E1,7.108287E1,6.281898E1,7.595559E1,8.0725655E1,1.629819E1,2.7769272E1,4.4570976E1,3.7388557E1,5.9313995E1,4.8954002E1,6.537529E1,5.4682636E1,6.8362E1,7.443002E1,5.7037155E1,6.550869E1,7.912588E1,7.385907E1,9.835658E0,1.9648277E1,9.590884E0,2.8598267E1,3.8413506E1,4.8264557E1,3.2922657E1,4.063981E1,5.2682537E1,6.192825E1,4.6824116E1,5.3169357E1,7.045675E1,6.318495E1,5.642639E1,4.9725227E1,7.158937E1,6.488547E1,7.8316605E1,7.186518E1,4.6365032E1,5.8322598E1],"categories":[],"categories_nodes":[],"categories_segments":[],"categories_sizes":[],"default_left":[1,1,1,1,1,1,1,1,1,1,1,1,1,1,0,1,1,1,1,1,1,1,1,1,1,1,0,0,0,0,0,0,0,0,0,0,0,0,0,0,0,0,0,0,0,0,0,0,0,0,0],"id":2,"left_children":[1,3,5,7,9,11,13,15,17,19,21,23,25,27,-1,29,31,33,35,37,39,41,43,45,47,49,-1,-1,-1,-1,-1,-1,-1,-1,-1,-1,-1,-1,-1,-1,-1,-1,-1,-1,-1,-1,-1,-1,-1,-1,-1],"loss_changes":[1.02105E6,2.029305E5,1.16402E5,3.3969E4,2.65445E4,2.8116E4,7.696E3,3.4440781E3,9.10275E3,1.928725E4,2.818625E4,7.3065E3,7.78725E3,1.6205E3,0E0,6.9439746E2,1.6245156E3,7.8573125E3,4.615125E3,1.661E3,4.1005E3,9.685E2,2.761375E3,3.91575E3,3.4325E2,6.294375E2,0E0,0E0,0E0,0E0,0E0,0E0,0E0,0E0,0E0,0E0,0E0,0E0,0E0,0E0,0E0,0E0,0E0,0E0,0E0,0E0,0E0,0E0,0E0,0E0,0E0],"parents":[2147483647,0,0,1,1,2,2,3,3,4,4,5,5,6,6,7,7,8,8,9,9,10,10,11,11,12,12,13,13,15,15,16,16,17,17,18,18,19,19,20,20,21,21,22,22,23,23,24,24,25,25],"right_children":[2,4,6,8,10,12,14,16,18,20,22,24,26,28,-1,30,32,34,36,38,40,42,44,46,48,50,-1,-1,-1,-1,-1,-1,-1,-1,-1,-1,-1,-1,-1,-1,-1,-1,-1,-1,-1,-1,-1,-1,-1,-1,-1],"split_conditions":[-8.316648E-2,-1.2162564E0,6.606565E-1,-2.3393416E0,-5.8765197E-1,5.3819394E-1,1.0180172E0,-9.068963E-1,-1.4057341E0,-1.1223593E0,-3.5653037E-1,3.00681E-1,2.6648116E-1,6.104E-1,8.072566E0,-1.0542095E0,-3.4567113E0,-1.8466799E0,-1.5916076E0,-1.0234956E0,1.8558316E-1,-1.1223481E0,4.901774E-1,-7.282765E-2,-6.040733E-2,-1.4876351E0,6.550869E0,7.9125876E0,7.385907E0,9.835658E-1,1.9648278E0,9.5908844E-1,2.8598268E0,3.8413506E0,4.8264556E0,3.2922657E0,4.063981E0,5.268254E0,6.192825E0,4.6824117E0,5.316936E0,7.045675E0,6.3184953E0,5.642639E0,4.9725227E0,7.158937E0,6.488547E0,7.8316607E0,7.186518E0,4.636503E0,5.8322597E0],"split_indices":[48,48,48,48,48,47,48,26,47,47,47,48,48,47,0,35,48,48,48,48,42,47,47,47,47,26,0,0,0,0,0,0,0,0,0,0,0,0,0,0,0,0,0,0,0,0,0,0,0,0,0],"split_type":[0,0,0,0,0,0,0,0,0,0,0,0,0,0,0,0,0,0,0,0,0,0,0,0,0,0,0,0,0,0,0,0,0,0,0,0,0,0,0,0,0,0,0,0,0,0,0,0,0,0,0],"sum_hessian":[7.699E3,3.145E3,4.554E3,1E3,2.145E3,2.1E3,2.454E3,1.65E2,8.35E2,1.016E3,1.129E3,1.36E3,7.4E2,1.122E3,1.332E3,4E1,1.25E2,4.26E2,4.09E2,2.83E2,7.33E2,4.86E2,6.43E2,7.62E2,5.98E2,2.42E2,4.98E2,4.32E2,6.9E2,1.5E1,2.5E1,6E0,1.19E2,1.64E2,2.62E2,1.77E2,2.32E2,8.6E1,1.97E2,4.95E2,2.38E2,1.37E2,3.49E2,4.68E2,1.75E2,3.85E2,3.77E2,2.26E2,3.72E2,3E1,2.12E2],"tree_param":{"num_deleted":"0","num_feature":"49","num_nodes":"51","size_leaf_vector":"0"}},{"base_weights":[5.775678E1,4.3568E1,6.532881E1,3.271926E1,4.8061573E1,5.9944492E1,7.043299E1,2.2756369E1,3.4920288E1,5.515323E1,4.62171E1,6.295716E1,5.5917465E1,6.7708534E1,7.2418045E1,8.373971E0,2.3981853E1,2.9794432E1,3.751563E1,4.94238E1,5.955401E1,4.108707E1,4.936765E1,5.9559166E1,6.585103E1,5.1639736E1,5.973135E1,7.060581E1,6.532521E1,4.7022934E0,1.0080982E1,3.0839596E1,2.0167942E1,2.506543E1,3.1989573E1,4.225452E1,3.4988506E1,4.97126E1,2.4721622E1,4.3802326E1,3.769675E1,5.2898296E1,4.5851994E1,6.444739E1,5.7663105E1,6.968792E1,6.392381E1,4.9658726E1,5.633504E1,6.2548325E1,5.640002E1],"categories":[],"categories_nodes":[],"categories_segments":[],"categories_sizes":[],"default_left":[1,1,1,1,1,1,1,1,1,1,1,1,1,1,0,1,1,1,1,1,0,1,1,1,1,1,1,0,0,0,0,0,0,0,0,0,0,0,0,0,0,0,0,0,0,0,0,0,0,0,0],"id":3,"left_children":[1,3,5,7,9,11,13,15,17,19,21,23,25,27,-1,29,31,33,35,37,-1,39,41,43,45,47,49,-1,-1,-1,-1,-1,-1,-1,-1,-1,-1,-1,-1,-1,-1,-1,-1,-1,-1,-1,-1,-1,-1,-1,-1],"loss_changes":[8.2679E5,1.295635E5,1.34098E5,1.6550875E4,2.2304E4,2.6276E4,9.039E3,2.3724844E3,7.476125E3,6.814375E3,2.24415E4,9.815E3,1.420925E4,2.9975E3,0E0,3.407495E1,2.8827734E3,1.5027344E3,3.6113125E3,1.234375E1,0E0,3.7064375E3,9.1555E3,2.336E3,1.05425E3,1.91825E3,1.671125E3,0E0,0E0,0E0,0E0,0E0,0E0,0E0,0E0,0E0,0E0,0E0,0E0,0E0,0E0,0E0,0E0,0E0,0E0,0E0,0E0,0E0,0E0,0E0,0E0],"parents":[2147483647,0,0,1,1,2,2,3,3,4,4,5,5,6,6,7,7,8,8,9,9,10,10,11,11,12,12,13,13,15,15,16,16,17,17,18,18,19,19,21,21,22,22,23,23,24,24,25,25,26,26],"right_children":[2,4,6,8,10,12,14,16,18,20,22,24,26,28,-1,30,32,34,36,38,-1,40,42,44,46,48,50,-1,-1,-1,-1,-1,-1,-1,-1,-1,-1,-1,-1,-1,-1,-1,-1,-1,-1,-1,-1,-1,-1,-1,-1],"split_conditions":[-2.9429257E-1,-1.4092152E0,6.3283145E-1,-2.4038057E0,-1.2775619E0,2.759518E-1,9.826088E-1,-3.428584E0,-5.956483E-1,-9.78112E-1,-8.39167E-1,1.077303E-1,2.7316874E-1,6.757302E-1,7.2418046E0,1.0899932E0,-2.6679864E0,-5.414715E-1,-1.9340916E0,2.3668394E0,5.955401E0,8.173658E-2,-3.1480762E-1,-7.268882E-1,-3.2020342E-1,1.4591134E-1,3.242528E-1,7.060581E0,6.5325212E0,4.7022936E-1,1.0080982E0,3.0839596E0,2.0167942E0,2.506543E0,3.1989572E0,4.225452E0,3.4988506E0,4.97126E0,2.4721622E0,4.380233E0,3.769675E0,5.2898297E0,4.5851994E0,6.444739E0,5.7663107E0,6.968792E0,6.392381E0,4.965873E0,5.6335044E0,6.2548327E0,5.6400023E0],"split_indices":[48,48,48,48,47,47,48,48,42,48,48,48,48,47,0,45,47,26,47,45,0,45,47,47,47,25,36,0,0,0,0,0,0,0,0,0,0,0,0,0,0,0,0,0,0,0,0,0,0,0,0],"split_type":[0,0,0,0,0,0,0,0,0,0,0,0,0,0,0,0,0,0,0,0,0,0,0,0,0,0,0,0,0,0,0,0,0,0,0,0,0,0,0,0,0,0,0,0,0,0,0,0,0,0,0],"sum_hessian":[7.721E3,2.689E3,5.032E3,7.9E2,1.899E3,2.455E3,2.577E3,1.45E2,6.45E2,3.86E2,1.513E3,1.396E3,1.059E3,1.101E3,1.476E3,1.2E1,1.33E2,2.21E2,4.24E2,1.73E2,2.13E2,5.81E2,9.32E2,6.52E2,7.44E2,5.06E2,5.53E2,4.84E2,6.17E2,5E0,7E0,4.5E1,8.8E1,7.4E1,1.47E2,1.42E2,2.82E2,1.7E2,3E0,3.16E2,2.65E2,4.58E2,4.74E2,1.73E2,4.79E2,2.37E2,5.07E2,3.64E2,1.42E2,2.9E2,2.63E2],"tree_param":{"num_deleted":"0","num_feature":"49","num_nodes":"51","size_leaf_vector":"0"}},{"base_weights":[5.176926E1,3.9315937E1,5.9058414E1,2.9422209E1,4.328335E1,5.315597E1,6.2768852E1,2.2864717E1,3.302711E1,3.9711063E1,4.6712345E1,5.7899E1,5.0464016E1,5.9681973E1,6.487858E1,1.6674868E1,2.5325888E1,3.8983032E1,2.984121E1,4.3698578E1,3.655398E1,5.1347233E1,4.277204E1,5.4750263E1,5.992125E1,4.8107956E1,5.349263E1,6.344916E1,5.7109566E1,8.245012E0,1.806313E1,3.0129965E1,2.2596334E1,2.5269814E1,3.9476807E1,2.522246E1,3.279853E1,4.738849E1,4.080482E1,3.0049898E1,3.7846123E1,4.792389E1,5.495732E1,4.4519222E1,3.783334E1,5.209896E1,4.6485424E1,4.701141E1,5.476676E1,5.5476326E1,6.170613E1],"categories":[],"categories_nodes":[],"categories_segments":[],"categories_sizes":[],"default_left":[1,1,1,1,1,1,1,1,1,1,1,1,1,1,0,1,1,1,1,1,1,1,1,0,0,1,1,0,1,0,0,0,0,0,0,0,0,0,0,0,0,0,0,0,0,0,0,0,0,0,0],"id":4,"left_children":[1,3,5,7,9,11,13,15,17,19,21,23,25,27,-1,29,31,33,35,37,39,41,43,-1,-1,45,47,-1,49,-1,-1,-1,-1,-1,-1,-1,-1,-1,-1,-1,-1,-1,-1,-1,-1,-1,-1,-1,-1,-1,-1],"loss_changes":[6.93462E5,1.09929E5,1.02508E5,1.8487062E4,2.28885E4,2.098E4,1.5418E4,4.0261094E3,8.760625E3,1.0941125E4,1.65235E4,9.9175E2,6.0035E3,8.1505E3,0E0,8.575137E2,2.0335625E3,2.1446875E2,3.8851562E3,2.7111875E3,3.585875E3,3.12525E3,3.14775E3,0E0,0E0,2.020375E3,1.694625E3,0E0,2.072E3,0E0,0E0,0E0,0E0,0E0,0E0,0E0,0E0,0E0,0E0,0E0,0E0,0E0,0E0,0E0,0E0,0E0,0E0,0E0,0E0,0E0,0E0],"parents":[2147483647,0,0,1,1,2,2,3,3,4,4,5,5,6,6,7,7,8,8,9,9,10,10,11,11,12,12,13,13,15,15,16,16,17,17,18,18,19,19,20,20,21,21,22,22,25,25,26,26,28,28],"right_children":[2,4,6,8,10,12,14,16,18,20,22,24,26,28,-1,30,32,34,36,38,40,42,44,-1,-1,46,48,-1,50,-1,-1,-1,-1,-1,-1,-1,-1,-1,-1,-1,-1,-1,-1,-1,-1,-1,-1,-1,-1,-1,-1],"split_conditions":[-2.3462737E-1,-1.4092152E0,4.7455484E-1,-2.0761185E0,-7.2347844E-1,-6.0824104E-2,8.769512E-1,-2.6538267E0,-1.7539108E0,-9.782259E-1,-4.4152302E-1,1.8485062E-2,-9.724703E-3,4.4731224E-1,6.487858E0,-1.358469E0,-2.238717E-2,-1.7674954E0,-5.956483E-1,-3.6902714E-1,-1.1836843E0,1.8558316E-1,3.458324E-1,5.4750266E0,5.992125E0,-7.156671E-1,-5.6445364E-2,6.3449163E0,6.725086E-1,8.245012E-1,1.8063129E0,3.0129964E0,2.2596335E0,2.5269814E0,3.9476807E0,2.5222461E0,3.279853E0,4.738849E0,4.080482E0,3.0049899E0,3.7846124E0,4.792389E0,5.4957323E0,4.4519224E0,3.783334E0,5.209896E0,4.6485424E0,4.701141E0,5.4766765E0,5.5476327E0,6.1706133E0],"split_indices":[48,48,48,48,48,47,48,48,47,47,47,48,42,47,0,26,36,42,42,36,48,42,47,0,0,36,48,0,25,0,0,0,0,0,0,0,0,0,0,0,0,0,0,0,0,0,0,0,0,0,0],"split_type":[0,0,0,0,0,0,0,0,0,0,0,0,0,0,0,0,0,0,0,0,0,0,0,0,0,0,0,0,0,0,0,0,0,0,0,0,0,0,0,0,0,0,0,0,0,0,0,0,0,0,0],"sum_hessian":[7.664E3,2.832E3,4.832E3,8.13E2,2.019E3,1.871E3,2.961E3,2.91E2,5.22E2,9.95E2,1.024E3,6.7E2,1.201E3,1.214E3,1.747E3,8.5E1,2.06E2,1.78E2,3.44E2,4.34E2,5.61E2,4.65E2,5.59E2,2.73E2,3.97E2,6.85E2,5.16E2,4.83E2,7.31E2,1.3E1,7.2E1,7.1E1,1.35E2,8E0,1.7E2,1.38E2,2.06E2,1.84E2,2.5E2,9.7E1,4.64E2,2.46E2,2.19E2,4.07E2,1.52E2,1.89E2,4.96E2,9.1E1,4.25E2,5.49E2,1.82E2],"tree_param":{"num_deleted":"0","num_feature":"49","num_nodes":"51","size_leaf_vector":"0"}},{"base_weights":[4.6731457E1,3.4914433E1,5.2833023E1,2.5191885E1,3.8180695E1,4.7211956E1,5.617563E1,1.8290117E1,2.7530422E1,4.253969E1,3.5583263E1,4.980792E1,4.2442272E1,5.3384327E1,5.8161144E1,1.1687048E1,2.0381786E1,2.2596231E1,2.9890694E1,4.001417E1,4.7646614E1,3.1651115E1,3.8029438E1,4.7705624E1,5.234045E1,3.880045E1,4.5060444E1,5.639743E1,5.050462E1,5.6501484E1,5.942581E1,1.6414455E1,8.568276E0,2.296392E1,1.4609276E1,2.3030464E1,7.467758E0,2.5434847E1,3.1971956E1,2.9574574E1,4.0855083E1,4.9178707E1,4.0717113E1,3.4176212E1,2.7435244E1,4.41978E1,3.6100056E1,4.5752544E1,5.0283512E1,4.898728E1,5.4025593E1,3.4293278E1,4.1174507E1,5.1817196E1,4.3542423E1,5.231097E1,4.6735847E1,5.8418808E1,5.4430065E1],"categories":[],"categories_nodes":[],"categories_segments":[],"categories_sizes":[],"default_left":[1,1,1,1,1,1,1,1,1,1,1,1,1,1,1,1,1,1,1,1,1,1,1,1,1,1,1,0,1,1,0,0,0,0,0,0,0,0,0,0,0,0,0,0,0,0,0,0,0,0,0,0,0,0,0,0,0,0,0],"id":5,"left_children":[1,3,5,7,9,11,13,15,17,19,21,23,25,27,29,31,33,35,37,39,41,43,45,47,49,51,53,-1,55,57,-1,-1,-1,-1,-1,-1,-1,-1,-1,-1,-1,-1,-1,-1,-1,-1,-1,-1,-1,-1,-1,-1,-1,-1,-1,-1,-1,-1,-1],"loss_changes":[5.47431E5,8.15095E4,9.1706E4,1.0084344E4,2.047425E4,2.11515E4,1.432E4,2.0959297E3,5.007875E3,7.379875E3,1.056E4,3.9505E3,4.6305E3,8.59675E3,4.75E2,4.9333594E2,1.5575E3,8.922344E2,2.2193125E3,3.07575E3,4.7125E2,4.119E3,7.318375E3,1.088E3,3.9925E2,1.6589688E3,1.67225E3,0E0,2.2115E3,3.725E1,0E0,0E0,0E0,0E0,0E0,0E0,0E0,0E0,0E0,0E0,0E0,0E0,0E0,0E0,0E0,0E0,0E0,0E0,0E0,0E0,0E0,0E0,0E0,0E0,0E0,0E0,0E0,0E0,0E0],"parents":[2147483647,0,0,1,1,2,2,3,3,4,4,5,5,6,6,7,7,8,8,9,9,10,10,11,11,12,12,13,13,14,14,15,15,16,16,17,17,18,18,19,19,20,20,21,21,22,22,23,23,24,24,25,25,26,26,28,28,29,29],"right_children":[2,4,6,8,10,12,14,16,18,20,22,24,26,28,30,32,34,36,38,40,42,44,46,48,50,52,54,-1,56,58,-1,-1,-1,-1,-1,-1,-1,-1,-1,-1,-1,-1,-1,-1,-1,-1,-1,-1,-1,-1,-1,-1,-1,-1,-1,-1,-1,-1,-1],"split_conditions":[-3.270576E-1,-1.5485187E0,4.0665174E-1,-2.3393416E0,-3.6902714E-1,3.2102877E-1,8.4994614E-1,-8.95185E-1,-5.956483E-1,3.8089103E-1,-9.395505E-1,1.8558316E-1,-3.5659796E-1,5.6405234E-1,1.1259187E0,-5.768092E-1,-1.8610264E0,1.3048179E0,-6.209973E-1,-1.4649724E0,-4.38936E-1,-7.1397424E-1,-9.805205E-1,3.40555E-1,-6.43594E-2,2.1442637E-2,-9.272021E-1,5.6397433E0,6.708928E-1,1.0932693E0,5.942581E0,1.6414455E0,8.568277E-1,2.2963922E0,1.4609276E0,2.3030465E0,7.467758E-1,2.5434847E0,3.1971958E0,2.9574573E0,4.0855083E0,4.917871E0,4.0717115E0,3.4176214E0,2.7435243E0,4.4197803E0,3.6100056E0,4.5752544E0,5.0283513E0,4.8987284E0,5.4025593E0,3.4293277E0,4.1174507E0,5.18172E0,4.3542423E0,5.231097E0,4.673585E0,5.841881E0,5.4430065E0],"split_indices":[48,48,48,48,36,47,48,26,42,42,48,42,26,47,48,19,47,30,26,26,47,47,47,35,48,48,45,0,36,47,0,0,0,0,0,0,0,0,0,0,0,0,0,0,0,0,0,0,0,0,0,0,0,0,0,0,0,0,0],"split_type":[0,0,0,0,0,0,0,0,0,0,0,0,0,0,0,0,0,0,0,0,0,0,0,0,0,0,0,0,0,0,0,0,0,0,0,0,0,0,0,0,0,0,0,0,0,0,0,0,0,0,0,0,0,0,0,0,0,0,0],"sum_hessian":[7.617E3,2.596E3,5.021E3,6.55E2,1.941E3,1.878E3,3.143E3,1.68E2,4.87E2,7.19E2,1.222E3,1.21E3,6.68E2,1.318E3,1.825E3,4.2E1,1.26E2,1.61E2,3.26E2,4.87E2,2.32E2,4.74E2,7.48E2,6.72E2,5.38E2,2.86E2,3.82E2,6.35E2,6.83E2,8.09E2,1.016E3,1.5E1,2.7E1,8.5E1,4.1E1,1.56E2,5E0,1.08E2,2.18E2,3.9E1,4.48E2,1.85E2,4.7E1,2.92E2,1.82E2,1.73E2,5.75E2,3.93E2,2.79E2,1.9E2,3.48E2,1.04E2,1.82E2,6.4E1,3.18E2,4.53E2,2.3E2,4.06E2,4.03E2],"tree_param":{"num_deleted":"0","num_feature":"49","num_nodes":"59","size_leaf_vector":"0"}},{"base_weights":[4.2091972E1,3.2110374E1,4.7907288E1,2.4597567E1,3.585973E1,4.4080635E1,5.1558987E1,1.8491362E1,2.720766E1,3.4201973E1,4.0986694E1,4.652079E1,4.1140656E1,4.9881916E1,5.328497E1,1.3090684E1,2.0892225E1,3.100194E1,2.3918892E1,3.0205473E1,3.643339E1,4.284474E1,3.5088463E1,4.456867E1,4.9974937E1,3.9676247E1,4.7412884E1,5.1997818E1,4.7918037E1,5.528283E0,1.5421764E1,2.4378052E1,1.7337599E1,2.9106344E1,3.554346E1,2.1660023E1,2.6887003E1,3.274885E1,2.653185E1,3.9869347E1,3.4228275E1,4.9885696E1,4.1385925E1,1.5338392E1,3.566199E1,4.9067745E1,4.327702E1,3.5485905E1,4.1645718E1,4.6278057E1,5.02446E1],"categories":[],"categories_nodes":[],"categories_segments":[],"categories_sizes":[],"default_left":[1,1,1,1,1,1,1,1,1,1,1,1,1,1,0,1,1,1,1,1,1,1,1,1,0,1,0,0,1,0,0,0,0,0,0,0,0,0,0,0,0,0,0,0,0,0,0,0,0,0,0],"id":6,"left_children":[1,3,5,7,9,11,13,15,17,19,21,23,25,27,-1,29,31,33,35,37,39,41,43,45,-1,47,-1,-1,49,-1,-1,-1,-1,-1,-1,-1,-1,-1,-1,-1,-1,-1,-1,-1,-1,-1,-1,-1,-1,-1,-1],"loss_changes":[4.45475E5,7.905925E4,6.5696E4,1.4605875E4,1.467025E4,1.5175E4,4.5295E3,3.4478281E3,7.5192812E3,1.1696625E4,3.505E3,6.498E3,8.12125E3,2.8065E3,0E0,1.5189443E3,2.0183359E3,1.5825312E3,1.8245625E3,3.9896562E3,5.575625E3,1.4585625E3,7.556406E2,2.73475E3,0E0,5.858875E3,0E0,0E0,2.46375E2,0E0,0E0,0E0,0E0,0E0,0E0,0E0,0E0,0E0,0E0,0E0,0E0,0E0,0E0,0E0,0E0,0E0,0E0,0E0,0E0,0E0,0E0],"parents":[2147483647,0,0,1,1,2,2,3,3,4,4,5,5,6,6,7,7,8,8,9,9,10,10,11,11,12,12,13,13,15,15,16,16,17,17,18,18,19,19,20,20,21,21,22,22,23,23,25,25,28,28],"right_children":[2,4,6,8,10,12,14,16,18,20,22,24,26,28,-1,30,32,34,36,38,40,42,44,46,-1,48,-1,-1,50,-1,-1,-1,-1,-1,-1,-1,-1,-1,-1,-1,-1,-1,-1,-1,-1,-1,-1,-1,-1,-1,-1],"split_conditions":[-2.1553366E-1,-1.2764497E0,6.636416E-1,-2.0761185E0,1.4591134E-1,2.759518E-1,1.0792179E0,-2.6291552E0,-1.4795321E0,-3.6493582E-1,1.0175328E0,2.9866162E-1,6.725086E-1,8.262649E-1,5.328497E0,-9.530089E-1,3.8471067E-1,-1.4953067E0,4.711427E-3,3.242528E-1,-3.6902714E-1,-1.638356E0,-1.4334779E0,-7.2180176E-1,4.9974937E0,1.725667E-1,4.7412887E0,5.199782E0,3.40555E-1,5.528283E-1,1.5421765E0,2.4378052E0,1.7337599E0,2.9106345E0,3.554346E0,2.1660023E0,2.6887004E0,3.2748852E0,2.6531851E0,3.9869347E0,3.4228275E0,4.9885697E0,4.1385927E0,1.5338392E0,3.566199E0,4.9067745E0,4.327702E0,3.5485904E0,4.164572E0,4.6278057E0,5.02446E0],"split_indices":[48,48,48,48,25,47,48,48,47,26,36,48,25,47,0,26,45,48,31,36,36,47,26,47,0,48,0,0,35,0,0,0,0,0,0,0,0,0,0,0,0,0,0,0,0,0,0,0,0,0,0],"split_type":[0,0,0,0,0,0,0,0,0,0,0,0,0,0,0,0,0,0,0,0,0,0,0,0,0,0,0,0,0,0,0,0,0,0,0,0,0,0,0,0,0,0,0,0,0,0,0,0,0,0,0],"sum_hessian":[7.7E3,2.837E3,4.863E3,9.47E2,1.89E3,2.381E3,2.482E3,2.86E2,6.61E2,1.434E3,4.56E2,1.293E3,1.088E3,1.274E3,1.208E3,9E1,1.96E2,3.03E2,3.58E2,5.19E2,9.15E2,3.42E2,1.14E2,8.35E2,4.58E2,8.88E2,2E2,6.01E2,6.73E2,2.2E1,6.8E1,9.6E1,1E2,2.19E2,8.4E1,2.08E2,1.5E2,3.02E2,2.17E2,3.51E2,5.64E2,5.3E1,2.89E2,4E0,1.1E2,1.78E2,6.57E2,2.9E2,5.98E2,4.07E2,2.66E2],"tree_param":{"num_deleted":"0","num_feature":"49","num_nodes":"51","size_leaf_vector":"0"}},{"base_weights":[3.8032684E1,2.7293098E1,4.244495E1,2.1462362E1,3.0524664E1,3.823809E1,4.5863777E1,1.1812007E1,2.257803E1,3.6182312E1,2.8888119E1,3.6942585E1,4.3778656E1,4.3553658E1,4.7251774E1,1.6825449E1,8.467562E0,2.0084597E1,2.5853268E1,3.8699287E1,3.0707884E1,2.4695595E1,3.0665565E1,4.1279984E1,3.528783E1,3.9799618E1,4.587E1,4.6054058E1,4.1318413E1,2.452031E1,1.2413757E1,1.329137E0,1.0524439E1,1.5918151E1,2.1592033E1,2.0952272E1,2.8096003E1,3.6540237E1,4.400509E1,2.6214039E1,3.4784035E1,2.0034977E1,2.7009209E1,3.1757067E1,2.2449492E1,4.259894E1,3.644061E1,3.251758E1,3.7511227E1,3.988682E1,4.550812E1],"categories":[],"categories_nodes":[],"categories_segments":[],"categories_sizes":[],"default_left":[1,1,1,1,1,1,1,1,1,1,1,1,1,1,0,1,1,1,1,1,1,1,1,1,1,0,0,0,1,0,0,0,0,0,0,0,0,0,0,0,0,0,0,0,0,0,0,0,0,0,0],"id":7,"left_children":[1,3,5,7,9,11,13,15,17,19,21,23,25,27,-1,29,31,33,35,37,39,41,43,45,47,-1,-1,-1,49,-1,-1,-1,-1,-1,-1,-1,-1,-1,-1,-1,-1,-1,-1,-1,-1,-1,-1,-1,-1,-1,-1],"loss_changes":[3.61912E5,4.1438875E4,7.633E4,8.3465625E3,1.2241375E4,1.589675E4,7.529E3,1.2827402E3,5.3280312E3,3.1933438E3,7.574125E3,1.2783E4,1.9773125E3,4.4405E3,0E0,8.1587305E2,7.642031E2,2.237625E3,2.7747656E3,8.4353125E2,1.0115078E3,3.1034844E3,6.290875E3,1.9071875E3,7.66825E3,0E0,0E0,0E0,1.8375E3,0E0,0E0,0E0,0E0,0E0,0E0,0E0,0E0,0E0,0E0,0E0,0E0,0E0,0E0,0E0,0E0,0E0,0E0,0E0,0E0,0E0,0E0],"parents":[2147483647,0,0,1,1,2,2,3,3,4,4,5,5,6,6,7,7,8,8,9,9,10,10,11,11,12,12,13,13,15,15,16,16,17,17,18,18,19,19,20,20,21,21,22,22,23,23,24,24,28,28],"right_children":[2,4,6,8,10,12,14,16,18,20,22,24,26,28,-1,30,32,34,36,38,40,42,44,46,48,-1,-1,-1,50,-1,-1,-1,-1,-1,-1,-1,-1,-1,-1,-1,-1,-1,-1,-1,-1,-1,-1,-1,-1,-1,-1],"split_conditions":[-4.731932E-1,-1.39884E0,4.711952E-1,-2.628688E0,-1.2924865E0,6.725086E-1,8.5613227E-1,-2.6679864E0,-8.136131E-3,2.3094091E-1,-1.0076984E0,-3.573333E-1,-4.969524E-1,5.6405234E-1,4.7251773E0,-7.156671E-1,-1.1107025E0,-7.9095614E-1,-6.1268985E-1,-7.618163E-1,-8.136131E-3,-5.956483E-1,2.394202E-1,6.708928E-1,3.130035E-2,3.9799619E0,4.587E0,4.605406E0,6.725086E-1,2.452031E0,1.2413758E0,1.329137E-1,1.0524439E0,1.5918151E0,2.1592033E0,2.0952272E0,2.8096004E0,3.654024E0,4.400509E0,2.621404E0,3.4784036E0,2.0034978E0,2.7009208E0,3.1757066E0,2.244949E0,4.2598944E0,3.6440609E0,3.2517579E0,3.7511227E0,3.9886823E0,4.5508122E0],"split_indices":[48,48,48,48,47,25,48,47,35,45,48,47,26,47,0,36,15,43,26,48,35,43,47,36,48,0,0,0,25,0,0,0,0,0,0,0,0,0,0,0,0,0,0,0,0,0,0,0,0,0,0],"split_type":[0,0,0,0,0,0,0,0,0,0,0,0,0,0,0,0,0,0,0,0,0,0,0,0,0,0,0,0,0,0,0,0,0,0,0,0,0,0,0,0,0,0,0,0,0,0,0,0,0,0,0],"sum_hessian":[7.661E3,2.233E3,5.428E3,7.99E2,1.434E3,2.439E3,2.989E3,8.4E1,7.15E2,3.17E2,1.117E3,1.983E3,4.56E2,1.134E3,1.855E3,3.2E1,5.2E1,4.1E2,3.05E2,2.13E2,1.04E2,3.37E2,7.8E2,5.41E2,1.442E3,1.64E2,2.92E2,5.26E2,6.08E2,1E1,2.2E1,1.2E1,4E1,1.12E2,2.98E2,9.9E1,2.06E2,1.57E2,5.6E1,5.3E1,5.1E1,1.15E2,2.22E2,6.86E2,9.4E1,4.19E2,1.22E2,6.49E2,7.93E2,4.61E2,1.47E2],"tree_param":{"num_deleted":"0","num_feature":"49","num_nodes":"51","size_leaf_vector":"0"}},{"base_weights":[3.418242E1,2.550811E1,3.858236E1,2.0403244E1,2.890694E1,3.4207645E1,4.096284E1,1.5256562E1,2.2631811E1,2.6942247E1,3.3300537E1,3.633069E1,2.9929214E1,3.9002678E1,4.249302E1,1.0168524E1,1.6838589E1,2.5920227E1,1.980088E1,2.5280579E1,3.1688574E1,3.0981657E1,3.7224075E1,3.4356277E1,3.8779255E1,2.696836E1,3.281944E1,4.0801933E1,3.6204502E1,4.1202366E1,4.3464264E1,2.8448784E0,1.1476814E1,2.0989677E1,1.4263352E1,2.3057959E1,2.9082735E1,1.7485155E1,2.2743084E1,2.7482645E1,2.2136314E1,2.7991247E1,3.436384E1,3.556915E1,2.9020798E1,3.9129475E1,3.2010902E1,3.2522625E1,3.6964874E1,3.71899E1,4.175337E1,1.8883821E1,2.7793648E1,2.2716707E1,3.40345E1,3.5506004E1,4.1344334E1,3.8942066E1,3.3574383E1,4.2927353E1,3.9729218E1],"categories":[],"categories_nodes":[],"categories_segments":[],"categories_sizes":[],"default_left":[1,1,1,1,1,1,1,1,1,1,1,1,1,1,1,1,1,1,1,1,1,1,1,1,1,1,1,1,1,1,0,0,0,0,0,0,0,0,0,0,0,0,0,0,0,0,0,0,0,0,0,0,0,0,0,0,0,0,0,0,0],"id":8,"left_children":[1,3,5,7,9,11,13,15,17,19,21,23,25,27,29,31,33,35,37,39,41,43,45,47,49,51,53,55,57,59,-1,-1,-1,-1,-1,-1,-1,-1,-1,-1,-1,-1,-1,-1,-1,-1,-1,-1,-1,-1,-1,-1,-1,-1,-1,-1,-1,-1,-1,-1,-1],"loss_changes":[2.89692E5,4.393175E4,5.12E4,1.1457031E4,1.2378875E4,1.5135375E4,8.139E3,2.356289E3,6.1522188E3,7.622E3,3.1319688E3,4.41575E3,4.2323125E3,5.79275E3,4.945E2,7.051216E2,2.2448438E3,2.2984531E3,2.2527188E3,4.9030312E3,1.7384688E3,1.684375E3,4.3607812E2,1.98825E3,9.19375E2,1.4834375E3,2.8849375E3,1.033875E3,2.825375E3,3.32625E2,0E0,0E0,0E0,0E0,0E0,0E0,0E0,0E0,0E0,0E0,0E0,0E0,0E0,0E0,0E0,0E0,0E0,0E0,0E0,0E0,0E0,0E0,0E0,0E0,0E0,0E0,0E0,0E0,0E0,0E0,0E0],"parents":[2147483647,0,0,1,1,2,2,3,3,4,4,5,5,6,6,7,7,8,8,9,9,10,10,11,11,12,12,13,13,14,14,15,15,16,16,17,17,18,18,19,19,20,20,21,21,22,22,23,23,24,24,25,25,26,26,27,27,28,28,29,29],"right_children":[2,4,6,8,10,12,14,16,18,20,22,24,26,28,30,32,34,36,38,40,42,44,46,48,50,52,54,56,58,60,-1,-1,-1,-1,-1,-1,-1,-1,-1,-1,-1,-1,-1,-1,-1,-1,-1,-1,-1,-1,-1,-1,-1,-1,-1,-1,-1,-1,-1,-1,-1],"split_conditions":[-3.270576E-1,-1.1833103E0,3.682214E-1,-2.0050373E0,3.8089103E-1,3.4821427E-1,8.494474E-1,-2.6471539E0,-1.4057341E0,1.4591134E-1,3.40555E-1,1.8558316E-1,-3.8068596E-1,3.242528E-1,1.1262616E0,-3.348959E0,-2.1464803E0,9.425762E-2,-8.136131E-3,3.242528E-1,-3.568273E-1,-7.156671E-1,-4.03242E-1,1.4591134E-1,1.4591134E-1,-1.5721877E0,-1.5356886E0,-1.181572E0,6.945585E-1,9.4719535E-1,4.3464265E0,2.8448784E-1,1.1476815E0,2.0989678E0,1.4263352E0,2.305796E0,2.9082735E0,1.7485155E0,2.2743084E0,2.7482646E0,2.2136314E0,2.7991247E0,3.436384E0,3.556915E0,2.9020798E0,3.9129474E0,3.2010903E0,3.2522626E0,3.6964874E0,3.71899E0,4.175337E0,1.8883822E0,2.7793648E0,2.2716708E0,3.40345E0,3.5506005E0,4.1344333E0,3.8942068E0,3.3574383E0,4.2927356E0,3.9729218E0],"split_indices":[48,48,48,48,42,47,48,48,47,25,35,42,25,36,48,48,47,26,35,36,35,36,47,25,25,42,26,42,47,47,0,0,0,0,0,0,0,0,0,0,0,0,0,0,0,0,0,0,0,0,0,0,0,0,0,0,0,0,0,0,0],"split_type":[0,0,0,0,0,0,0,0,0,0,0,0,0,0,0,0,0,0,0,0,0,0,0,0,0,0,0,0,0,0,0,0,0,0,0,0,0,0,0,0,0,0,0,0,0,0,0,0,0,0,0,0,0,0,0,0,0,0,0,0,0],"sum_hessian":[7.615E3,2.565E3,5.05E3,1.028E3,1.537E3,1.785E3,3.265E3,3.13E2,7.15E2,1.067E3,4.7E2,1.188E3,5.97E2,1.443E3,1.822E3,7.6E1,2.37E2,3.27E2,3.88E2,7.95E2,2.72E2,3.01E2,1.69E2,6.66E2,5.22E2,3E2,2.97E2,8.7E2,5.73E2,8.01E2,1.021E3,1.2E1,6.4E1,8.8E1,1.49E2,1.76E2,1.51E2,2.21E2,1.67E2,4.63E2,3.32E2,1.19E2,1.53E2,8.5E1,2.16E2,1.19E2,5E1,3.99E2,2.67E2,3.49E2,1.73E2,3E1,2.7E2,3.4E1,2.63E2,8.7E1,7.83E2,2.74E2,2.99E2,3.56E2,4.45E2],"tree_param":{"num_deleted":"0","num_feature":"49","num_nodes":"61","size_leaf_vector":"0"}},{"base_weights":[3.0805676E1,2.1587425E1,3.4147285E1,1.7027004E1,2.3994274E1,3.0837284E1,3.7215256E1,1.3718821E1,1.9097298E1,2.2051453E1,2.7295298E1,2.8585722E1,3.3129536E1,3.551748E1,3.8488415E1,2.7690377E0,1.4332805E1,1.7837183E1,2.4481846E1,1.9670797E1,2.471837E1,2.9349045E1,2.283751E1,2.6732283E1,3.189842E1,3.0784504E1,3.5246334E1,3.466155E1,3.981603E1,-5.258722E-1,5.390176E0,1.8832142E1,1.3188209E1,1.8874983E1,1.1664443E1,1.0013079E1,2.4915524E1,2.1053179E1,1.4816115E1,2.2402235E1,2.8152899E1,2.8381617E1,3.8206245E1,1.646092E1,2.4556026E1,1.9289192E1,2.7501572E1,3.3105198E1,2.8018751E1,3.266702E1,2.7789005E1,3.0492044E1,3.6542522E1,3.3024014E1,3.653342E1,1.9864672E1,4.001498E1],"categories":[],"categories_nodes":[],"categories_segments":[],"categories_sizes":[],"default_left":[1,1,1,1,1,1,1,1,1,1,1,1,1,1,0,1,1,1,1,1,1,1,1,1,1,1,1,1,1,0,0,0,0,0,0,0,0,0,0,0,0,0,0,0,0,0,0,0,0,0,0,0,0,0,0,0,0],"id":9,"left_children":[1,3,5,7,9,11,13,15,17,19,21,23,25,27,-1,29,31,33,35,37,39,41,43,45,47,49,51,53,55,-1,-1,-1,-1,-1,-1,-1,-1,-1,-1,-1,-1,-1,-1,-1,-1,-1,-1,-1,-1,-1,-1,-1,-1,-1,-1,-1,-1],"loss_changes":[2.367595E5,2.2136688E4,5.62995E4,4.6212812E3,8.00475E3,1.31275E4,4.9685E3,1.8293008E3,2.521625E3,4.9104375E3,3.8432188E3,7.63875E3,5.591375E3,3.289E3,0E0,1.4101718E2,1.1060664E3,2.0668047E3,2.525039E2,2.7348906E3,2.527375E3,1.7775938E3,1.3491094E3,4.58275E3,1.3712188E3,2.735E3,3.1995E3,2.061E3,1.484375E1,0E0,0E0,0E0,0E0,0E0,0E0,0E0,0E0,0E0,0E0,0E0,0E0,0E0,0E0,0E0,0E0,0E0,0E0,0E0,0E0,0E0,0E0,0E0,0E0,0E0,0E0,0E0,0E0],"parents":[2147483647,0,0,1,1,2,2,3,3,4,4,5,5,6,6,7,7,8,8,9,9,10,10,11,11,12,12,13,13,15,15,16,16,17,17,18,18,19,19,20,20,21,21,22,22,23,23,24,24,25,25,26,26,27,27,28,28],"right_children":[2,4,6,8,10,12,14,16,18,20,22,24,26,28,-1,30,32,34,36,38,40,42,44,46,48,50,52,54,56,-1,-1,-1,-1,-1,-1,-1,-1,-1,-1,-1,-1,-1,-1,-1,-1,-1,-1,-1,-1,-1,-1,-1,-1,-1,-1,-1,-1],"split_conditions":[-5.837425E-1,-1.4807174E0,5.0432986E-1,-2.0781395E0,1.8558316E-1,-9.724703E-3,9.2371273E-1,-3.2935376E0,7.715067E-1,6.404025E-2,3.825546E-1,1.4591134E-1,-3.8068596E-1,1.199106E0,3.8488414E0,-1.0683028E0,-6.6077316E-1,1.445586E0,-1.3179882E0,8.7941504E-1,-3.8068596E-1,6.725086E-1,-1.1394324E0,-1.2055671E0,7.707828E-1,-8.103349E-3,-8.3777833E-1,1.8558316E-1,-2.0645888E0,-5.258722E-2,5.390176E-1,1.8832142E0,1.3188208E0,1.8874983E0,1.1664443E0,1.0013078E0,2.4915524E0,2.1053178E0,1.4816116E0,2.2402236E0,2.81529E0,2.8381617E0,3.8206246E0,1.646092E0,2.4556026E0,1.9289192E0,2.750157E0,3.31052E0,2.801875E0,3.266702E0,2.7789006E0,3.0492046E0,3.6542523E0,3.3024013E0,3.653342E0,1.9864672E0,4.001498E0],"split_indices":[48,48,48,48,42,42,48,48,42,26,45,25,25,25,0,7,45,45,14,45,25,25,24,26,45,45,26,42,26,0,0,0,0,0,0,0,0,0,0,0,0,0,0,0,0,0,0,0,0,0,0,0,0,0,0,0,0],"split_type":[0,0,0,0,0,0,0,0,0,0,0,0,0,0,0,0,0,0,0,0,0,0,0,0,0,0,0,0,0,0,0,0,0,0,0,0,0,0,0,0,0,0,0,0,0,0,0,0,0,0,0,0,0,0,0,0,0],"sum_hessian":[7.709E3,2.053E3,5.656E3,7.12E2,1.341E3,2.726E3,2.93E3,2.77E2,4.35E2,8.49E2,4.92E2,1.382E3,1.344E3,1.268E3,1.662E3,1.5E1,2.62E2,3.56E2,7.9E1,4.53E2,3.96E2,3.33E2,1.59E2,8.92E2,4.9E2,6.45E2,6.99E2,1.065E3,2.03E2,7E0,8E0,5E1,2.12E2,3.03E2,5.3E1,3E0,7.6E1,3.5E2,1.03E2,2.41E2,1.55E2,3.04E2,2.9E1,3.6E1,1.23E2,8.6E1,8.06E2,3.68E2,1.22E2,3.9E2,2.55E2,1.55E2,5.44E2,5.78E2,4.87E2,3E0,2E2],"tree_param":{"num_deleted":"0","num_feature":"49","num_nodes":"57","size_leaf_vector":"0"}},{"base_weights":[2.7711788E1,2.1440456E1,3.1907595E1,1.7684248E1,2.483174E1,2.9858562E1,3.4165134E1,1.2862852E1,1.9190205E1,2.783958E1,2.2282078E1,3.1299826E1,2.6228918E1,3.316868E1,3.5301666E1,1.57459E1,1.0004583E1,2.1403246E1,1.6053452E1,2.625739E1,3.2185696E1,1.9535948E1,2.3673605E1,3.299331E1,2.9250706E1,2.099002E1,2.7302326E1,3.4687473E1,3.181556E1,1.0048078E1,1.811151E1,1.4475817E1,8.395021E0,2.9654106E1,2.0465605E1,1.391968E1,1.9764894E1,2.3960707E1,2.8992393E1,3.587588E1,2.9108685E1,9.335729E0,2.0113651E1,2.9154589E1,2.265629E1,3.1110014E1,3.5423653E1,2.6532955E1,3.0737835E1,1.9284807E1,3.1081757E1,2.9381699E1,2.4226175E1,3.0322237E1,3.3806816E1],"categories":[],"categories_nodes":[],"categories_segments":[],"categories_sizes":[],"default_left":[1,1,1,1,1,1,1,1,1,1,1,1,1,1,0,1,1,1,1,1,1,1,1,1,1,1,1,0,1,0,0,0,0,0,0,0,0,0,0,0,0,0,0,0,0,0,0,0,0,0,0,0,0,0,0],"id":10,"left_children":[1,3,5,7,9,11,13,15,17,19,21,23,25,27,-1,29,31,33,35,37,39,41,43,45,47,49,51,-1,53,-1,-1,-1,-1,-1,-1,-1,-1,-1,-1,-1,-1,-1,-1,-1,-1,-1,-1,-1,-1,-1,-1,-1,-1,-1,-1],"loss_changes":[2.00902E5,3.8718625E4,2.0203E4,1.0368469E4,1.174975E4,1.180225E4,1.2935E3,2.7348906E3,7.375625E3,4.2159375E3,2.892625E3,5.010625E3,3.318375E3,1.31325E3,0E0,2.1498516E3,1.1666875E3,4.414E3,3.399461E3,2.7287188E3,1.1358125E3,1.5859297E3,2.5623438E3,3.1774375E3,2.3691875E3,1.5000391E3,2.9405625E3,0E0,8.60125E2,0E0,0E0,0E0,0E0,0E0,0E0,0E0,0E0,0E0,0E0,0E0,0E0,0E0,0E0,0E0,0E0,0E0,0E0,0E0,0E0,0E0,0E0,0E0,0E0,0E0,0E0],"parents":[2147483647,0,0,1,1,2,2,3,3,4,4,5,5,6,6,7,7,8,8,9,9,10,10,11,11,12,12,13,13,15,15,16,16,17,17,18,18,19,19,20,20,21,21,22,22,23,23,24,24,25,25,26,26,28,28],"right_children":[2,4,6,8,10,12,14,16,18,20,22,24,26,28,-1,30,32,34,36,38,40,42,44,46,48,50,52,-1,54,-1,-1,-1,-1,-1,-1,-1,-1,-1,-1,-1,-1,-1,-1,-1,-1,-1,-1,-1,-1,-1,-1,-1,-1,-1,-1],"split_conditions":[-9.718403E-2,-8.8078594E-1,7.654268E-1,-1.9342134E0,-4.506142E-1,7.5330555E-1,1.1461238E0,-1.9864131E0,-8.8867784E-1,7.715067E-1,-5.242528E-1,-2.238717E-2,1.6425054E-1,9.402879E-1,3.5301666E0,-2.6501718E0,-3.6902714E-1,-1.408947E0,-9.724703E-3,-5.310323E-1,-1.0707871E0,-1.8306504E0,-1.0623071E0,3.40555E-1,1.7483161E-1,1.3700233E0,-2.5667854E-2,3.4687474E0,1.8558316E-1,1.0048078E0,1.8111509E0,1.4475816E0,8.3950216E-1,2.9654107E0,2.0465605E0,1.391968E0,1.9764894E0,2.3960707E0,2.8992393E0,3.587588E0,2.9108684E0,9.335729E-1,2.0113652E0,2.915459E0,2.265629E0,3.1110015E0,3.5423653E0,2.6532955E0,3.0737836E0,1.9284807E0,3.1081758E0,2.93817E0,2.4226177E0,3.0322237E0,3.3806818E0],"split_indices":[48,48,48,48,47,47,48,47,47,42,26,36,48,47,0,48,36,36,42,48,47,24,36,35,48,17,45,0,42,0,0,0,0,0,0,0,0,0,0,0,0,0,0,0,0,0,0,0,0,0,0,0,0,0,0],"split_type":[0,0,0,0,0,0,0,0,0,0,0,0,0,0,0,0,0,0,0,0,0,0,0,0,0,0,0,0,0,0,0,0,0,0,0,0,0,0,0,0,0,0,0,0,0,0,0,0,0,0,0,0,0,0,0],"sum_hessian":[7.66E3,3.073E3,4.587E3,1.461E3,1.612E3,2.412E3,2.175E3,3.5E2,1.111E3,7.35E2,8.77E2,1.721E3,6.91E2,1.175E3,1E3,1.72E2,1.78E2,6.48E2,4.63E2,5.44E2,1.91E2,3E2,5.77E2,9.34E2,7.87E2,1.21E2,5.7E2,5.42E2,6.33E2,5.2E1,1.2E2,4.5E1,1.33E2,6.3E1,5.85E2,2.97E2,1.66E2,3.01E2,2.43E2,8.2E1,1.09E2,1.7E1,2.83E2,8.6E1,4.91E2,5.34E2,4E2,2.85E2,5.02E2,1.06E2,1.5E1,3.35E2,2.35E2,3.71E2,2.62E2],"tree_param":{"num_deleted":"0","num_feature":"49","num_nodes":"55","size_leaf_vector":"0"}},{"base_weights":[2.49261E1,2.23501E1,2.9023932E1,1.9084229E1,2.4975258E1,2.6681253E1,3.0289137E1,2.139408E1,1.4698168E1,2.7149101E1,2.2219425E1,2.5531816E1,3.2211533E1,2.8894016E1,3.1617006E1,1.7261284E1,2.2970715E1,9.580459E0,1.6190102E1,2.244814E1,2.8367123E1,1.8256994E1,2.4010227E1,2.3797098E1,2.851268E1,3.2520386E1,1.804068E1,2.7703823E1,3.1284992E1,1.3456406E1,1.9317204E1,2.0154354E1,2.5524746E1,4.498039E0,1.19694195E1,1.3598949E1,1.8687752E1,1.9057325E1,2.4526245E1,2.5577557E1,2.9730377E1,1.448381E1,2.0242094E1,2.056618E1,2.5690119E1,2.493268E1,1.9072712E1,3.056586E1,2.5989388E1,2.8767756E1,2.4957966E1],"categories":[],"categories_nodes":[],"categories_segments":[],"categories_sizes":[],"default_left":[1,1,1,1,1,1,1,1,1,1,1,1,1,1,0,1,1,1,1,1,1,1,1,1,1,0,0,1,0,0,0,0,0,0,0,0,0,0,0,0,0,0,0,0,0,0,0,0,0,0,0],"id":11,"left_children":[1,3,5,7,9,11,13,15,17,19,21,23,25,27,-1,29,31,33,35,37,39,41,43,45,47,-1,-1,49,-1,-1,-1,-1,-1,-1,-1,-1,-1,-1,-1,-1,-1,-1,-1,-1,-1,-1,-1,-1,-1,-1,-1],"loss_changes":[8.02845E4,3.992125E4,7.9535E3,2.1001438E4,1.5026625E4,5.8203125E3,2.628625E3,8.569375E3,5.4110156E3,7.688625E3,7.7645E3,3.8201875E3,1.8360938E2,1.819625E3,0E0,2.7438984E3,6.6283438E3,1.9738271E3,3.3894688E3,1.6747188E3,3.6166875E3,2.4332266E3,4.0596875E3,2.5074062E3,8.375781E2,0E0,0E0,1.1487812E3,0E0,0E0,0E0,0E0,0E0,0E0,0E0,0E0,0E0,0E0,0E0,0E0,0E0,0E0,0E0,0E0,0E0,0E0,0E0,0E0,0E0,0E0,0E0],"parents":[2147483647,0,0,1,1,2,2,3,3,4,4,5,5,6,6,7,7,8,8,9,9,10,10,11,11,12,12,13,13,15,15,16,16,17,17,18,18,19,19,20,20,21,21,22,22,23,23,24,24,27,27],"right_children":[2,4,6,8,10,12,14,16,18,20,22,24,26,28,-1,30,32,34,36,38,40,42,44,46,48,-1,-1,50,-1,-1,-1,-1,-1,-1,-1,-1,-1,-1,-1,-1,-1,-1,-1,-1,-1,-1,-1,-1,-1,-1,-1],"split_conditions":[1.4591134E-1,-1.341728E-1,-3.9784932E-1,1.9662145E-1,-7.222216E-2,1.7257032E0,-8.136131E-3,-6.136077E-1,-7.862853E-1,-7.4909973E-1,-4.7396225E-1,4.4383508E-1,2.5991175E0,1.199106E0,3.1617007E0,-9.072833E-1,-8.136131E-3,-8.5619533E-1,-8.136131E-3,-4.3441224E-1,-9.072833E-1,-9.072833E-1,-9.072833E-1,8.950973E-1,-2.4369717E-1,3.2520387E0,1.804068E0,3.9283812E-1,3.1284993E0,1.3456405E0,1.9317204E0,2.0154355E0,2.5524747E0,4.498039E-1,1.196942E0,1.359895E0,1.8687752E0,1.9057325E0,2.4526246E0,2.5577557E0,2.9730377E0,1.4483811E0,2.0242095E0,2.056618E0,2.569012E0,2.493268E0,1.9072713E0,3.056586E0,2.5989387E0,2.8767755E0,2.4957967E0],"split_indices":[25,24,24,45,45,25,35,26,26,26,26,31,45,25,0,25,35,46,35,31,25,25,25,45,45,0,0,45,0,0,0,0,0,0,0,0,0,0,0,0,0,0,0,0,0,0,0,0,0,0,0],"split_type":[0,0,0,0,0,0,0,0,0,0,0,0,0,0,0,0,0,0,0,0,0,0,0,0,0,0,0,0,0,0,0,0,0,0,0,0,0,0,0,0,0,0,0,0,0,0,0,0,0,0,0],"sum_hessian":[7.666E3,4.711E3,2.955E3,2.103E3,2.608E3,1.044E3,1.911E3,1.375E3,7.28E2,1.453E3,1.155E3,8.69E2,1.75E2,9.43E2,9.68E2,3.83E2,9.92E2,1.66E2,5.62E2,3.03E2,1.15E3,3.63E2,7.92E2,5.55E2,3.14E2,1.7E2,5E0,6.38E2,3.05E2,1.37E2,2.46E2,4.76E2,5.16E2,5.4E1,1.12E2,2.79E2,2.83E2,1.19E2,1.84E2,3.84E2,7.66E2,1.28E2,2.35E2,2.64E2,5.28E2,4.44E2,1.11E2,1.67E2,1.47E2,4.53E2,1.85E2],"tree_param":{"num_deleted":"0","num_feature":"49","num_nodes":"51","size_leaf_vector":"0"}},{"base_weights":[2.2395098E1,1.5699473E1,2.5301115E1,1.1045549E1,1.7467323E1,2.3023678E1,2.7674358E1,8.598656E0,1.3669357E1,1.484824E1,1.9481857E1,2.0158772E1,2.4591421E1,2.6954235E1,2.8915754E1,6.4705873E0,1.1222698E1,8.596938E0,1.4897843E1,1.1662942E1,1.6310823E1,1.4643369E1,2.0655039E1,2.2548752E1,1.8205414E1,2.3974554E1,3.0175797E1,2.4315554E1,2.7502123E1,3.8856814E0,9.393199E0,7.8582735E0,1.3703043E1,1.3320072E1,4.176615E0,1.6763704E1,1.1355131E1,2.3728807E0,1.284608E1,1.8663643E1,1.4345105E1,4.1473355E0,1.6208542E1,1.886833E1,2.3465397E1,2.102782E1,2.773218E1,1.9754179E1,1.4901196E1,2.2584148E1,2.7058659E1,1.7386751E1,3.045293E1,2.0395128E1,2.5042461E1,2.8845314E1,2.6647049E1],"categories":[],"categories_nodes":[],"categories_segments":[],"categories_sizes":[],"default_left":[1,1,1,1,1,1,1,1,1,1,1,1,1,1,0,1,1,1,1,1,1,1,1,1,1,1,1,1,1,0,0,0,0,0,0,0,0,0,0,0,0,0,0,0,0,0,0,0,0,0,0,0,0,0,0,0,0],"id":12,"left_children":[1,3,5,7,9,11,13,15,17,19,21,23,25,27,-1,29,31,33,35,37,39,41,43,45,47,49,51,53,55,-1,-1,-1,-1,-1,-1,-1,-1,-1,-1,-1,-1,-1,-1,-1,-1,-1,-1,-1,-1,-1,-1,-1,-1,-1,-1,-1,-1],"loss_changes":[1.5012675E5,1.9092188E4,2.85115E4,4.04275E3,8.664469E3,1.1891625E4,1.577125E3,1.8148223E3,1.8098867E3,3.2665625E3,5.1241875E3,4.16925E3,5.401375E3,1.76425E3,0E0,1.3913345E3,1.1440566E3,1.259667E3,1.4555898E3,2.5744863E3,2.0725156E3,3.054121E3,3.4085938E3,2.862E3,2.4946562E3,6.2756875E3,8.36875E1,3.385E2,8.233125E2,0E0,0E0,0E0,0E0,0E0,0E0,0E0,0E0,0E0,0E0,0E0,0E0,0E0,0E0,0E0,0E0,0E0,0E0,0E0,0E0,0E0,0E0,0E0,0E0,0E0,0E0,0E0,0E0],"parents":[2147483647,0,0,1,1,2,2,3,3,4,4,5,5,6,6,7,7,8,8,9,9,10,10,11,11,12,12,13,13,15,15,16,16,17,17,18,18,19,19,20,20,21,21,22,22,23,23,24,24,25,25,26,26,27,27,28,28],"right_children":[2,4,6,8,10,12,14,16,18,20,22,24,26,28,-1,30,32,34,36,38,40,42,44,46,48,50,52,54,56,-1,-1,-1,-1,-1,-1,-1,-1,-1,-1,-1,-1,-1,-1,-1,-1,-1,-1,-1,-1,-1,-1,-1,-1,-1,-1,-1,-1],"split_conditions":[-4.6524137E-1,-1.583653E0,5.9445465E-1,4.711427E-3,-3.568273E-1,-4.0034044E-1,1.1531535E0,-8.136131E-3,-2.4374185E0,-5.956483E-1,-9.8391753E-1,8.3399884E-2,1.199106E0,-8.098181E-1,2.8915756E0,-1.616098E-2,-7.9095614E-1,-2.3851798E0,-1.3997166E0,-1.4509194E0,-2.5552475E-1,-1.181572E0,-3.8068596E-1,2.8621718E-1,3.24871E-1,4.5839947E-1,-1.4439199E0,6.880894E-1,-6.057712E-1,3.8856813E-1,9.393199E-1,7.8582734E-1,1.3703043E0,1.3320073E0,4.1766152E-1,1.6763705E0,1.1355132E0,2.3728807E-1,1.284608E0,1.8663644E0,1.4345106E0,4.1473356E-1,1.6208543E0,1.8868331E0,2.3465397E0,2.102782E0,2.773218E0,1.975418E0,1.4901196E0,2.258415E0,2.7058659E0,1.7386751E0,3.045293E0,2.0395129E0,2.5042462E0,2.8845315E0,2.664705E0],"split_indices":[48,48,48,31,35,42,48,35,48,42,26,47,25,26,0,29,42,47,47,24,45,42,25,48,45,24,19,48,45,0,0,0,0,0,0,0,0,0,0,0,0,0,0,0,0,0,0,0,0,0,0,0,0,0,0,0,0],"split_type":[0,0,0,0,0,0,0,0,0,0,0,0,0,0,0,0,0,0,0,0,0,0,0,0,0,0,0,0,0,0,0,0,0,0,0,0,0,0,0,0,0,0,0,0,0,0,0,0,0,0,0,0,0,0,0,0,0],"sum_hessian":[7.735E3,2.343E3,5.392E3,6.47E2,1.696E3,2.757E3,2.635E3,3.37E2,3.1E2,7.41E2,9.55E2,9.8E2,1.777E3,1.682E3,9.53E2,1.88E2,1.49E2,6.2E1,2.48E2,2.36E2,5.05E2,1.89E2,7.66E2,4.36E2,5.44E2,1.605E3,1.72E2,2.97E2,1.385E3,1.01E2,8.7E1,6.5E1,8.4E1,2.9E1,3.3E1,1.6E2,8.8E1,2.7E1,2.09E2,2.26E2,2.79E2,2.5E1,1.64E2,4.73E2,2.93E2,3.41E2,9.5E1,3.67E2,1.77E2,1.112E3,4.93E2,5E0,1.67E2,5.1E1,2.46E2,5.26E2,8.59E2],"tree_param":{"num_deleted":"0","num_feature":"49","num_nodes":"57","size_leaf_vector":"0"}},{"base_weights":[2.0185316E1,1.5500894E1,2.3621708E1,1.1639666E1,1.7718187E1,2.1767601E1,2.5036234E1,6.9260454E0,1.2975347E1,1.6587727E1,2.2335842E1,2.5018236E1,2.0348736E1,2.4332466E1,2.5960659E1,9.134407E0,4.1213098E0,8.363807E0,1.4078584E1,1.825963E1,1.4198445E1,2.625293E1,2.091295E1,2.3965155E1,2.7375452E1,1.7728493E1,2.2029127E1,2.5358706E1,2.2849098E1,6.682362E0,1.1135116E1,-3.1096773E0,5.6135263E0,1.4696331E1,7.3088894E0,1.9131926E1,1.2618082E1,2.0078783E1,1.5928948E1,1.1513495E1,1.5777864E1,1.7349327E1,2.7119492E1,2.2699617E1,1.8595436E1,9.780797E0,2.411575E1,1.9003986E1,1.3544278E1,2.420599E1,2.017238E1,2.2250147E1,2.5727427E1,2.1500769E1,2.51028E1],"categories":[],"categories_nodes":[],"categories_segments":[],"categories_sizes":[],"default_left":[1,1,1,1,1,1,1,1,1,1,1,1,1,1,0,1,1,1,1,1,1,1,1,1,0,1,1,1,1,0,0,0,0,0,0,0,0,0,0,0,0,0,0,0,0,0,0,0,0,0,0,0,0,0,0],"id":13,"left_children":[1,3,5,7,9,11,13,15,17,19,21,23,25,27,-1,29,31,33,35,37,39,41,43,45,-1,47,49,51,53,-1,-1,-1,-1,-1,-1,-1,-1,-1,-1,-1,-1,-1,-1,-1,-1,-1,-1,-1,-1,-1,-1,-1,-1,-1,-1],"loss_changes":[1.2384225E5,2.7772625E4,1.112325E4,7.4337188E3,1.04559375E4,8.406375E3,1.005875E3,1.6099238E3,4.61375E3,6.4118125E3,1.7082656E3,7.9115625E2,5.558E3,1.62025E3,0E0,6.516533E2,1.3014899E3,1.1083994E3,5.2865312E3,3.8310312E3,2.752875E3,3.3191406E2,8.28375E2,6.420469E2,0E0,2.5871875E3,2.8219688E3,3.96125E2,1.2865312E3,0E0,0E0,0E0,0E0,0E0,0E0,0E0,0E0,0E0,0E0,0E0,0E0,0E0,0E0,0E0,0E0,0E0,0E0,0E0,0E0,0E0,0E0,0E0,0E0,0E0,0E0],"parents":[2147483647,0,0,1,1,2,2,3,3,4,4,5,5,6,6,7,7,8,8,9,9,10,10,11,11,12,12,13,13,15,15,16,16,17,17,18,18,19,19,20,20,21,21,22,22,23,23,25,25,26,26,27,27,28,28],"right_children":[2,4,6,8,10,12,14,16,18,20,22,24,26,28,-1,30,32,34,36,38,40,42,44,46,-1,48,50,52,54,-1,-1,-1,-1,-1,-1,-1,-1,-1,-1,-1,-1,-1,-1,-1,-1,-1,-1,-1,-1,-1,-1,-1,-1,-1,-1],"split_conditions":[-5.738602E-2,-1.1130118E0,6.3283145E-1,-9.86264E-1,7.715067E-1,-6.0930032E-2,1.11151E0,3.6105236E-1,-2.2179332E0,3.242528E-1,-1.1076727E0,3.2584143E-1,-4.0034044E-1,1.0844998E0,2.596066E0,-5.558357E-1,-1.1248372E0,-3.0674725E0,-1.9090683E0,-3.4238017E-1,-3.148895E-1,-8.868712E-1,3.242528E-1,-2.1723738E0,2.7375453E0,1.0175328E0,-2.238717E-2,-1.4439199E0,3.8089103E-1,6.682362E-1,1.1135116E0,-3.1096774E-1,5.6135267E-1,1.4696331E0,7.3088896E-1,1.9131926E0,1.2618083E0,2.0078783E0,1.5928949E0,1.1513495E0,1.5777864E0,1.7349328E0,2.711949E0,2.2699618E0,1.8595437E0,9.7807974E-1,2.411575E0,1.9003986E0,1.3544278E0,2.420599E0,2.0172381E0,2.2250147E0,2.5727427E0,2.1500769E0,2.5102801E0],"split_indices":[48,48,48,42,42,47,48,38,48,36,47,48,42,47,0,24,26,47,47,47,26,26,36,26,0,36,36,19,42,0,0,0,0,0,0,0,0,0,0,0,0,0,0,0,0,0,0,0,0,0,0,0,0,0,0],"split_type":[0,0,0,0,0,0,0,0,0,0,0,0,0,0,0,0,0,0,0,0,0,0,0,0,0,0,0,0,0,0,0,0,0,0,0,0,0,0,0,0,0,0,0,0,0,0,0,0,0,0,0,0,0,0,0],"sum_hessian":[7.715E3,3.267E3,4.448E3,1.194E3,2.073E3,1.932E3,2.516E3,2.65E2,9.29E2,1.669E3,4.04E2,5.82E2,1.35E3,1.444E3,1.072E3,1.47E2,1.18E2,1.81E2,7.48E2,9.78E2,6.91E2,1.03E2,3.01E2,4.1E2,1.72E2,5.32E2,8.18E2,8.44E2,6E2,6.8E1,7.9E1,2E1,9.8E1,2.4E1,1.57E2,1.65E2,5.83E2,5.45E2,4.33E2,2.59E2,4.32E2,1.1E1,9.2E1,1.65E2,1.36E2,5E0,4.05E2,4.05E2,1.27E2,3.71E2,4.47E2,9.6E1,7.48E2,3.82E2,2.18E2],"tree_param":{"num_deleted":"0","num_feature":"49","num_nodes":"55","size_leaf_vector":"0"}},{"base_weights":[1.819744E1,1.54857435E1,2.012646E1,1.8549229E1,1.3659853E1,1.7917974E1,2.1302101E1,1.7251274E1,2.2658848E1,9.1345415E0,1.4979559E1,2.0135643E1,1.6469036E1,2.2465586E1,1.9635946E1,8.8768635E0,1.764901E1,1.986864E1,2.486328E1,7.484185E0,1.313401E1,1.2228608E1,1.6854279E1,1.8259214E1,2.2591377E1,9.6158495E0,1.6955418E1,1.9740759E1,2.310367E1,1.7166504E1,2.0679724E1,1.2936807E1,5.9918303E0,1.4989747E1,1.8772627E1,1.0588447E1,2.090633E1,2.5315184E1,1.5869535E1,5.090126E0,9.74583E0,9.967328E0,1.660451E1,9.418368E0,1.3892216E1,1.5887273E1,2.1758377E1,1.4095858E1,1.9283106E1,2.3198336E1,1.8988867E1,6.9030714E0,1.42694845E1,1.5826596E1,1.9943377E1,1.7157305E1,2.157732E1,2.2540192E1,2.4560835E1,1.4739375E1,1.9525608E1,1.948475E1,2.2629454E1],"categories":[],"categories_nodes":[],"categories_segments":[],"categories_sizes":[],"default_left":[1,1,1,1,1,1,1,1,1,1,1,1,1,1,1,1,1,1,1,1,1,1,1,1,1,1,1,1,1,1,1,0,0,0,0,0,0,0,0,0,0,0,0,0,0,0,0,0,0,0,0,0,0,0,0,0,0,0,0,0,0,0,0],"id":14,"left_children":[1,3,5,7,9,11,13,15,17,19,21,23,25,27,29,31,33,35,37,39,41,43,45,47,49,51,53,55,57,59,61,-1,-1,-1,-1,-1,-1,-1,-1,-1,-1,-1,-1,-1,-1,-1,-1,-1,-1,-1,-1,-1,-1,-1,-1,-1,-1,-1,-1,-1,-1,-1,-1],"loss_changes":[3.962625E4,1.7523125E4,1.1193E4,5.9246875E3,1.1777469E4,4.665E3,5.188375E3,2.854375E3,1.234375E3,2.89175E3,7.7515625E3,2.3983906E3,2.9902344E3,2.504875E3,2.74325E3,4.2614673E2,2.29425E3,1.02089844E3,2.2010156E2,1.6992793E3,1.2741855E3,2.8098203E3,3.9935156E3,1.2244375E3,1.28E2,7.220747E2,2.6592344E3,1.1955312E3,5.745625E2,1.7906797E3,1.5161875E3,0E0,0E0,0E0,0E0,0E0,0E0,0E0,0E0,0E0,0E0,0E0,0E0,0E0,0E0,0E0,0E0,0E0,0E0,0E0,0E0,0E0,0E0,0E0,0E0,0E0,0E0,0E0,0E0,0E0,0E0,0E0,0E0],"parents":[2147483647,0,0,1,1,2,2,3,3,4,4,5,5,6,6,7,7,8,8,9,9,10,10,11,11,12,12,13,13,14,14,15,15,16,16,17,17,18,18,19,19,20,20,21,21,22,22,23,23,24,24,25,25,26,26,27,27,28,28,29,29,30,30],"right_children":[2,4,6,8,10,12,14,16,18,20,22,24,26,28,30,32,34,36,38,40,42,44,46,48,50,52,54,56,58,60,62,-1,-1,-1,-1,-1,-1,-1,-1,-1,-1,-1,-1,-1,-1,-1,-1,-1,-1,-1,-1,-1,-1,-1,-1,-1,-1,-1,-1,-1,-1,-1,-1],"split_conditions":[-4.8688793E-1,-6.091509E-1,-4.0034044E-1,7.715067E-1,-7.9095614E-1,-3.6902714E-1,3.242528E-1,-1.6929148E0,-1.02302134E-1,6.7681473E-1,-3.568273E-1,3.40555E-1,-1.5703328E0,-1.0542095E0,-4.965499E-1,-9.9616414E-1,-7.055184E-1,-1.4029007E0,1.0175328E0,-8.136131E-3,-8.136131E-3,-2.6379728E-1,1.1621225E0,-2.1209414E-1,-3.1888962E-1,3.2779124E-1,1.1932484E0,-3.448547E-1,9.668146E-1,5.035229E-1,3.5204142E-1,1.2936807E0,5.99183E-1,1.4989747E0,1.8772627E0,1.0588447E0,2.0906332E0,2.5315185E0,1.5869535E0,5.0901264E-1,9.7458297E-1,9.9673283E-1,1.6604509E0,9.4183683E-1,1.3892215E0,1.5887274E0,2.1758378E0,1.4095858E0,1.9283106E0,2.3198335E0,1.8988867E0,6.9030714E-1,1.4269484E0,1.5826596E0,1.9943377E0,1.7157305E0,2.157732E0,2.2540193E0,2.4560835E0,1.4739375E0,1.9525608E0,1.9484751E0,2.2629454E0],"split_indices":[44,45,42,42,42,36,36,26,26,7,35,35,26,35,26,45,35,35,36,35,35,26,42,44,45,7,44,13,42,44,13,0,0,0,0,0,0,0,0,0,0,0,0,0,0,0,0,0,0,0,0,0,0,0,0,0,0,0,0,0,0,0,0],"split_type":[0,0,0,0,0,0,0,0,0,0,0,0,0,0,0,0,0,0,0,0,0,0,0,0,0,0,0,0,0,0,0,0,0,0,0,0,0,0,0,0,0,0,0,0,0,0,0,0,0,0,0,0,0,0,0,0,0,0,0,0,0,0,0],"sum_hessian":[7.634E3,3.177E3,4.457E3,1.183E3,1.994E3,1.554E3,2.903E3,9.03E2,2.8E2,4.52E2,1.542E3,6.09E2,9.45E2,1.702E3,1.201E3,4.2E1,8.61E2,1.28E2,1.52E2,3.22E2,1.3E2,6.28E2,9.14E2,3.5E2,2.59E2,6.4E1,8.81E2,3.29E2,1.373E3,3.62E2,8.39E2,1.6E1,2.6E1,2.6E2,6.01E2,1.4E1,1.14E2,1.43E2,9E0,1.58E2,1.64E2,7E1,6E1,2.36E2,3.92E2,7.67E2,1.47E2,7.2E1,2.78E2,2.17E2,4.2E1,4.2E1,2.2E1,6.44E2,2.37E2,1.41E2,1.88E2,1.002E3,3.71E2,1.82E2,1.8E2,5.27E2,3.12E2],"tree_param":{"num_deleted":"0","num_feature":"49","num_nodes":"63","size_leaf_vector":"0"}},{"base_weights":[1.6443708E1,1.118816E1,1.8607517E1,7.341834E0,1.2359182E1,1.6721823E1,2.0304531E1,1.0171175E1,5.095793E0,1.4908036E1,1.059904E1,1.3959758E1,1.7843878E1,1.9631027E1,2.1328606E1,4.479449E0,1.1608506E1,4.480413E0,1.0341271E1,1.2619072E1,1.6733751E1,9.216664E0,1.3109515E1,1.2530187E1,1.6329826E1,1.6148268E1,1.9584063E1,1.8810406E1,2.1238129E1,1.5485325E0,7.5979004E0,1.4714343E1,9.814491E0,5.520102E0,8.5346884E-1,1.1587616E1,1.79203E0,1.1084184E1,1.6400105E1,1.5478623E1,2.088834E1,7.7675266E0,1.14796E1,1.0688704E1,1.6090862E1,1.0937613E1,1.4636002E1,1.7684269E1,1.1136525E1,1.8661657E1,1.4915926E1,2.0371185E1,1.5013622E1,2.0512348E1,1.7515762E1],"categories":[],"categories_nodes":[],"categories_segments":[],"categories_sizes":[],"default_left":[1,1,1,1,1,1,1,1,1,1,1,1,1,1,0,1,1,1,1,1,1,1,1,1,1,1,1,1,0,0,0,0,0,0,0,0,0,0,0,0,0,0,0,0,0,0,0,0,0,0,0,0,0,0,0],"id":15,"left_children":[1,3,5,7,9,11,13,15,17,19,21,23,25,27,-1,29,31,33,35,37,39,41,43,45,47,49,51,53,-1,-1,-1,-1,-1,-1,-1,-1,-1,-1,-1,-1,-1,-1,-1,-1,-1,-1,-1,-1,-1,-1,-1,-1,-1,-1,-1],"loss_changes":[8.6492125E4,9.9355E3,1.6937375E4,3.2653828E3,7.4911875E3,7.6940625E3,1.538125E3,1.8296094E3,8.994595E2,2.6890625E3,3.3912344E3,2.3195938E3,5.0510625E3,1.874125E3,0E0,4.269505E2,8.752461E2,9.908052E2,2.9889355E2,1.6288984E3,1.6738438E3,2.0620547E3,2.4045781E3,1.4127812E3,1.7514844E3,2.5928906E3,2.9066875E3,2.174625E3,0E0,0E0,0E0,0E0,0E0,0E0,0E0,0E0,0E0,0E0,0E0,0E0,0E0,0E0,0E0,0E0,0E0,0E0,0E0,0E0,0E0,0E0,0E0,0E0,0E0,0E0,0E0],"parents":[2147483647,0,0,1,1,2,2,3,3,4,4,5,5,6,6,7,7,8,8,9,9,10,10,11,11,12,12,13,13,15,15,16,16,17,17,18,18,19,19,20,20,21,21,22,22,23,23,24,24,25,25,26,26,27,27],"right_children":[2,4,6,8,10,12,14,16,18,20,22,24,26,28,-1,30,32,34,36,38,40,42,44,46,48,50,52,54,-1,-1,-1,-1,-1,-1,-1,-1,-1,-1,-1,-1,-1,-1,-1,-1,-1,-1,-1,-1,-1,-1,-1,-1,-1,-1,-1],"split_conditions":[-4.6827972E-1,-1.6889384E0,5.2721953E-1,-1.9178367E0,-9.945612E-1,-5.956483E-1,6.725086E-1,-2.6501718E0,9.668146E-1,3.5540387E-3,3.40555E-1,3.40555E-1,-8.136131E-3,1.0887262E0,2.1328607E0,-2.0503256E-1,-3.6902714E-1,8.6796737E-1,-6.655676E-1,1.4591134E-1,1.0379373E0,-7.434902E-1,-2.0503256E-1,1.6385199E-1,1.0175328E0,-1.879981E-1,7.053639E-1,-3.6902714E-1,2.123813E0,1.5485325E-1,7.5979006E-1,1.4714344E0,9.814491E-1,5.5201024E-1,8.5346885E-2,1.1587616E0,1.79203E-1,1.1084183E0,1.6400105E0,1.5478624E0,2.088834E0,7.7675265E-1,1.1479601E0,1.0688704E0,1.6090863E0,1.0937613E0,1.4636002E0,1.7684269E0,1.1136526E0,1.8661658E0,1.4915926E0,2.0371187E0,1.5013622E0,2.051235E0,1.7515763E0],"split_indices":[48,48,48,47,47,42,25,48,42,28,35,35,35,48,0,42,36,30,44,25,35,48,42,48,36,47,47,36,0,0,0,0,0,0,0,0,0,0,0,0,0,0,0,0,0,0,0,0,0,0,0,0,0,0,0],"split_type":[0,0,0,0,0,0,0,0,0,0,0,0,0,0,0,0,0,0,0,0,0,0,0,0,0,0,0,0,0,0,0,0,0,0,0,0,0,0,0,0,0,0,0,0,0,0,0,0,0,0,0,0,0,0,0],"sum_hessian":[7.623E3,2.225E3,5.398E3,5.21E2,1.704E3,2.562E3,2.836E3,2.29E2,2.92E2,6.93E2,1.011E3,7.44E2,1.818E3,1.723E3,1.113E3,4.7E1,1.82E2,2.63E2,2.9E1,3.11E2,3.82E2,6.55E2,3.56E2,4.68E2,2.76E2,9.26E2,8.92E2,1.149E3,5.74E2,2.5E1,2.2E1,6.4E1,1.18E2,2.04E2,5.9E1,2.5E1,4E0,2.24E2,8.7E1,2.97E2,8.5E1,4.02E2,2.53E2,1.99E2,1.57E2,2.7E2,1.98E2,2.17E2,5.9E1,3E2,6.26E2,7.58E2,1.34E2,4.9E2,6.59E2],"tree_param":{"num_deleted":"0","num_feature":"49","num_nodes":"55","size_leaf_vector":"0"}},{"base_weights":[1.4663716E1,1.1857404E1,1.6765741E1,1.0280325E1,1.4789286E1,1.5493615E1,1.8605349E1,1.2127896E1,7.5472765E0,1.7958925E1,1.34523E1,1.1960809E1,1.6231867E1,1.7932182E1,2.0336641E1,1.3838246E1,9.957142E0,4.8753934E0,9.406441E0,1.5840791E1,1.9296091E1,1.0604922E1,1.4668235E1,9.218169E0,1.3843939E1,1.7470106E1,1.4436266E1,1.852311E1,1.5677322E1,2.4182144E1,1.9895412E1,9.890793E0,1.4640454E1,8.886949E0,1.4560972E1,1.833635E0,6.1873465E0,1.0464919E1,4.495026E0,1.779069E1,1.1895338E1,1.6595049E1,2.0400915E1,9.625639E0,1.4881958E1,1.6056467E1,1.2514839E1,1.2252066E1,6.4561586E0,1.6064835E1,1.1467691E1,1.5138794E1,1.8322826E1,1.34408245E1,1.6961428E1,1.6650942E1,1.9310701E1,1.2919925E1,1.6684393E1,2.4975393E1,1.2682425E1],"categories":[],"categories_nodes":[],"categories_segments":[],"categories_sizes":[],"default_left":[1,1,1,1,1,1,1,1,1,1,1,1,1,1,1,1,1,1,1,1,1,1,1,1,1,1,1,1,1,1,0,0,0,0,0,0,0,0,0,0,0,0,0,0,0,0,0,0,0,0,0,0,0,0,0,0,0,0,0,0,0],"id":16,"left_children":[1,3,5,7,9,11,13,15,17,19,21,23,25,27,29,31,33,35,37,39,41,43,45,47,49,51,53,55,57,59,-1,-1,-1,-1,-1,-1,-1,-1,-1,-1,-1,-1,-1,-1,-1,-1,-1,-1,-1,-1,-1,-1,-1,-1,-1,-1,-1,-1,-1,-1,-1],"loss_changes":[4.497525E4,1.50279375E4,9.9525E3,1.07043125E4,4.614875E3,6.5686875E3,1.7144375E3,4.59225E3,4.251E3,6.488203E2,2.6488438E3,2.2068516E3,4.51025E3,1.4324688E3,3.5370312E2,2.1035469E3,2.6543438E3,1.4133145E3,2.5990586E3,8.3465625E2,2.6425E2,8.8710547E2,1.4880703E3,1.4878926E3,1.2195625E3,2.2334062E3,1.9840312E3,1.1809688E3,5.480781E2,1.0286914E2,0E0,0E0,0E0,0E0,0E0,0E0,0E0,0E0,0E0,0E0,0E0,0E0,0E0,0E0,0E0,0E0,0E0,0E0,0E0,0E0,0E0,0E0,0E0,0E0,0E0,0E0,0E0,0E0,0E0,0E0,0E0],"parents":[2147483647,0,0,1,1,2,2,3,3,4,4,5,5,6,6,7,7,8,8,9,9,10,10,11,11,12,12,13,13,14,14,15,15,16,16,17,17,18,18,19,19,20,20,21,21,22,22,23,23,24,24,25,25,26,26,27,27,28,28,29,29],"right_children":[2,4,6,8,10,12,14,16,18,20,22,24,26,28,30,32,34,36,38,40,42,44,46,48,50,52,54,56,58,60,-1,-1,-1,-1,-1,-1,-1,-1,-1,-1,-1,-1,-1,-1,-1,-1,-1,-1,-1,-1,-1,-1,-1,-1,-1,-1,-1,-1,-1,-1,-1],"split_conditions":[-3.8068596E-1,3.8089103E-1,6.725086E-1,3.242528E-1,-7.156671E-1,-9.86264E-1,1.7257032E0,-5.0600517E-1,-3.568273E-1,-3.7025577E-1,-7.783672E-1,-3.568273E-1,3.242528E-1,1.0175328E0,-7.82439E-1,-1.0542095E0,1.0258383E0,-7.192793E-1,1.7562408E0,4.17686E-1,4.711427E-3,3.3984572E-1,3.6105236E-1,1.1223674E-2,-8.794347E-1,-7.297157E-1,6.892462E-1,-7.055184E-1,-7.192793E-1,1.661945E0,1.9895413E0,9.890793E-1,1.4640454E0,8.886949E-1,1.4560972E0,1.833635E-1,6.1873466E-1,1.046492E0,4.4950262E-1,1.779069E0,1.1895338E0,1.6595049E0,2.0400915E0,9.6256393E-1,1.4881958E0,1.6056467E0,1.2514839E0,1.2252066E0,6.456159E-1,1.6064835E0,1.1467692E0,1.5138794E0,1.8322827E0,1.3440825E0,1.6961428E0,1.6650943E0,1.9310702E0,1.2919925E0,1.6684393E0,2.4975393E0,1.2682425E0],"split_indices":[25,42,25,36,36,42,25,45,35,7,47,35,36,36,47,35,7,7,45,39,31,5,38,38,30,5,35,35,7,45,0,0,0,0,0,0,0,0,0,0,0,0,0,0,0,0,0,0,0,0,0,0,0,0,0,0,0,0,0,0,0],"split_type":[0,0,0,0,0,0,0,0,0,0,0,0,0,0,0,0,0,0,0,0,0,0,0,0,0,0,0,0,0,0,0,0,0,0,0,0,0,0,0,0,0,0,0,0,0,0,0,0,0,0,0,0,0,0,0,0,0,0,0,0,0],"sum_hessian":[7.657E3,3.282E3,4.375E3,2.137E3,1.145E3,2.592E3,1.783E3,1.273E3,8.64E2,3.36E2,8.09E2,4.51E2,2.141E3,1.292E3,4.91E2,7.09E2,5.64E2,3.56E2,5.08E2,1.35E2,2.01E2,2.45E2,5.64E2,1.86E2,2.65E2,1.262E3,8.79E2,1.018E3,2.74E2,4.5E1,4.46E2,1.22E2,5.87E2,4.6E2,1.04E2,1.08E2,2.48E2,4.17E2,9.1E1,8.8E1,4.7E1,6.3E1,1.38E2,2.02E2,4.3E1,3.39E2,2.25E2,8.7E1,9.9E1,1.34E2,1.31E2,3.43E2,9.19E2,6.35E2,2.44E2,3.08E2,7.1E2,7.7E1,1.97E2,4.1E1,4E0],"tree_param":{"num_deleted":"0","num_feature":"49","num_nodes":"61","size_leaf_vector":"0"}},{"base_weights":[1.3295952E1,9.72223E0,1.5709657E1,7.2413683E0,1.1520129E1,1.3539351E1,1.633896E1,5.012279E0,8.817235E0,1.3611226E1,1.0200979E1,1.0285592E1,1.4564637E1,1.4538285E1,1.672933E1,4.4961505E0,1.3291788E1,7.3075047E0,1.16634245E1,1.121299E1,1.5265678E1,7.411838E0,1.1246794E1,1.2031037E1,6.37728E0,1.2936178E1,1.6766075E1,1.323858E1,1.6668558E1,1.6948013E1,1.4688162E1,2.7897213E0,6.4438314E0,1.6464766E1,6.895843E0,1.6970115E0,8.149697E0,9.485663E0,1.4049043E1,2.2170625E0,1.1852026E1,1.7008955E1,1.2811259E1,5.5577583E0,1.1435634E1,6.416605E0,1.1902864E1,8.944502E0,1.4133032E1,2.1665876E0,7.96445E0,1.0957631E1,1.5134727E1,1.292226E1,1.7858788E1,1.2373195E1,1.6800526E1,1.6250872E1,1.7537825E1,1.2681196E1,1.6719404E1],"categories":[],"categories_nodes":[],"categories_segments":[],"categories_sizes":[],"default_left":[1,1,1,1,1,1,1,1,1,1,1,1,1,1,1,1,1,1,1,1,1,1,1,1,1,1,1,1,0,1,1,0,0,0,0,0,0,0,0,0,0,0,0,0,0,0,0,0,0,0,0,0,0,0,0,0,0,0,0,0,0],"id":17,"left_children":[1,3,5,7,9,11,13,15,17,19,21,23,25,27,29,31,33,35,37,39,41,43,45,47,49,51,53,55,-1,57,59,-1,-1,-1,-1,-1,-1,-1,-1,-1,-1,-1,-1,-1,-1,-1,-1,-1,-1,-1,-1,-1,-1,-1,-1,-1,-1,-1,-1,-1,-1],"loss_changes":[6.53955E4,1.3591969E4,5.97125E3,4.4907656E3,4.760203E3,3.269625E3,2.224125E3,2.234995E3,3.1589883E3,2.5427812E3,3.1048438E3,1.6218867E3,2.568625E3,1.5319375E3,1.0356875E3,1.6670771E3,5.1558154E2,2.3298281E3,1.2175156E3,1.6006133E3,1.5021406E3,2.1820352E3,2.4365938E3,9.830156E2,5.1070776E2,1.7959766E3,1.1426875E3,1.0189453E3,0E0,7.811875E2,9.5389453E2,0E0,0E0,0E0,0E0,0E0,0E0,0E0,0E0,0E0,0E0,0E0,0E0,0E0,0E0,0E0,0E0,0E0,0E0,0E0,0E0,0E0,0E0,0E0,0E0,0E0,0E0,0E0,0E0,0E0,0E0],"parents":[2147483647,0,0,1,1,2,2,3,3,4,4,5,5,6,6,7,7,8,8,9,9,10,10,11,11,12,12,13,13,14,14,15,15,16,16,17,17,18,18,19,19,20,20,21,21,22,22,23,23,24,24,25,25,26,26,27,27,29,29,30,30],"right_children":[2,4,6,8,10,12,14,16,18,20,22,24,26,28,30,32,34,36,38,40,42,44,46,48,50,52,54,56,-1,58,60,-1,-1,-1,-1,-1,-1,-1,-1,-1,-1,-1,-1,-1,-1,-1,-1,-1,-1,-1,-1,-1,-1,-1,-1,-1,-1,-1,-1,-1,-1],"split_conditions":[-1.2054107E-1,-1.0076984E0,2.6874107E-1,-4.3386632E-1,-3.6902714E-1,-7.5524753E-1,-7.9700416E-1,1.6755307E0,-1.0520834E-1,-2.9739177E-1,-6.836809E-1,4.17686E-1,1.7018826E-1,9.5800185E-1,1.3641727E0,-8.136131E-3,2.0412415E-1,-2.4022512E0,-1.616098E-2,-1.7468798E0,-6.4341044E-1,1.4591134E-1,-1.3768797E0,-3.568273E-1,-3.8068596E-1,-8.136131E-3,-9.072833E-1,9.668146E-1,1.6668558E0,1.4591134E-1,8.333012E-1,2.7897212E-1,6.4438313E-1,1.6464766E0,6.895843E-1,1.6970114E-1,8.149697E-1,9.485664E-1,1.4049042E0,2.2170626E-1,1.1852026E0,1.7008955E0,1.2811259E0,5.557758E-1,1.1435634E0,6.416605E-1,1.1902865E0,8.944502E-1,1.4133033E0,2.1665876E-1,7.96445E-1,1.0957631E0,1.5134727E0,1.2922261E0,1.7858788E0,1.2373195E0,1.6800526E0,1.6250871E0,1.7537825E0,1.2681197E0,1.6719404E0],"split_indices":[48,48,48,28,36,26,26,26,24,26,24,39,24,48,36,35,40,48,29,24,45,25,42,35,25,35,25,42,0,25,48,0,0,0,0,0,0,0,0,0,0,0,0,0,0,0,0,0,0,0,0,0,0,0,0,0,0,0,0,0,0],"split_type":[0,0,0,0,0,0,0,0,0,0,0,0,0,0,0,0,0,0,0,0,0,0,0,0,0,0,0,0,0,0,0,0,0,0,0,0,0,0,0,0,0,0,0,0,0,0,0,0,0,0,0,0,0,0,0,0,0,0,0,0,0],"sum_hessian":[7.598E3,3.065E3,4.533E3,1.29E3,1.775E3,1.024E3,3.509E3,5.36E2,7.54E2,6.83E2,1.092E3,2.48E2,7.76E2,6.32E2,2.877E3,5.06E2,3E1,4.95E2,2.59E2,2.82E2,4.01E2,3E2,7.92E2,1.7E2,7.8E1,4.5E2,3.26E2,3.97E2,2.35E2,2.592E3,2.85E2,2.71E2,2.35E2,1.9E1,1.1E1,6.5E1,4.3E2,1.38E2,1.21E2,1.9E1,2.63E2,2.31E2,1.7E2,2.07E2,9.3E1,9.6E1,6.96E2,7.1E1,9.9E1,2.2E1,5.6E1,2.4E2,2.1E2,7.5E1,2.51E2,3.23E2,7.4E1,1.201E3,1.391E3,1.47E2,1.38E2],"tree_param":{"num_deleted":"0","num_feature":"49","num_nodes":"61","size_leaf_vector":"0"}},{"base_weights":[1.1928809E1,7.269233E0,1.3406468E1,5.7201395E0,9.294823E0,1.1615877E1,1.4783E1,4.252851E0,8.297887E0,1.094581E1,7.0552883E0,1.4022141E1,1.0257543E1,1.78119E1,1.4531535E1,5.504406E-1,5.0042315E0,5.0521326E0,9.856903E0,8.268513E0,1.2481453E1,-4.161792E-1,7.616949E0,1.9195461E1,1.33654375E1,9.603376E0,1.4459564E1,1.3103289E1,1.5246239E1,3.579959E0,-1.5211217E0,5.461636E0,-1.2580003E0,3.2878304E0,8.049009E0,6.634039E0,1.130246E1,1.203921E0,9.413725E0,1.40421E1,1.0235675E1,5.0600314E0,-9.136498E0,6.7220645E0,1.1715652E1,1.1078012E1,1.9682102E1,1.1966151E1,1.5091152E1,4.418911E0,1.00669365E1,1.1668035E1,1.6950207E1,1.2241815E1,1.57178755E1,1.4798747E1,1.5846177E1],"categories":[],"categories_nodes":[],"categories_segments":[],"categories_sizes":[],"default_left":[1,1,1,1,1,1,1,1,1,1,1,1,1,0,1,1,1,1,1,1,1,1,1,1,1,1,1,1,1,0,0,0,0,0,0,0,0,0,0,0,0,0,0,0,0,0,0,0,0,0,0,0,0,0,0,0,0],"id":18,"left_children":[1,3,5,7,9,11,13,15,17,19,21,23,25,-1,27,29,31,33,35,37,39,41,43,45,47,49,51,53,55,-1,-1,-1,-1,-1,-1,-1,-1,-1,-1,-1,-1,-1,-1,-1,-1,-1,-1,-1,-1,-1,-1,-1,-1,-1,-1,-1,-1],"loss_changes":[5.3001875E4,5.7800547E3,1.425725E4,3.9588203E3,2.8955156E3,8.1875938E3,2.2591875E3,1.87504E3,1.8831914E3,1.7921406E3,1.4467402E3,2.8588125E3,4.349953E3,0E0,2.92175E3,7.2716675E2,1.6137842E3,6.3974805E2,1.1223398E3,1.3721348E3,8.761875E2,1.2400886E3,1.0949648E3,1.809375E2,1.7922812E3,3.3586016E3,1.3179141E3,2.1207812E3,3.1103125E2,0E0,0E0,0E0,0E0,0E0,0E0,0E0,0E0,0E0,0E0,0E0,0E0,0E0,0E0,0E0,0E0,0E0,0E0,0E0,0E0,0E0,0E0,0E0,0E0,0E0,0E0,0E0,0E0],"parents":[2147483647,0,0,1,1,2,2,3,3,4,4,5,5,6,6,7,7,8,8,9,9,10,10,11,11,12,12,14,14,15,15,16,16,17,17,18,18,19,19,20,20,21,21,22,22,23,23,24,24,25,25,26,26,27,27,28,28],"right_children":[2,4,6,8,10,12,14,16,18,20,22,24,26,-1,28,30,32,34,36,38,40,42,44,46,48,50,52,54,56,-1,-1,-1,-1,-1,-1,-1,-1,-1,-1,-1,-1,-1,-1,-1,-1,-1,-1,-1,-1,-1,-1,-1,-1,-1,-1,-1,-1],"split_conditions":[-6.808227E-1,9.176916E-2,3.561039E-1,1.8558316E-1,3.6105236E-1,-3.4217453E-1,-1.2313073E-3,-2.1713977E0,-8.2995164E-1,-6.936511E-1,-1.7956762E0,-1.4238806E0,9.668146E-1,1.7811899E0,7.991309E-1,-8.658461E-1,2.4098402E-1,-2.4406359E-2,-7.055184E-1,-2.2243807E0,2.0412415E-1,1.0607097E0,1.4591134E-1,-1.0024564E0,1.997032E-1,-1.5209674E0,-8.136131E-3,6.725086E-1,1.1988013E0,3.579959E-1,-1.5211217E-1,5.461636E-1,-1.2580003E-1,3.2878304E-1,8.0490094E-1,6.634039E-1,1.130246E0,1.203921E-1,9.413725E-1,1.40421E0,1.0235676E0,5.0600314E-1,-9.1364986E-1,6.7220646E-1,1.1715653E0,1.1078013E0,1.9682102E0,1.1966151E0,1.5091152E0,4.418911E-1,1.0066937E0,1.1668035E0,1.6950207E0,1.2241815E0,1.5717876E0,1.4798747E0,1.5846177E0],"split_indices":[48,26,48,42,38,47,47,48,24,24,24,47,42,0,48,19,47,9,35,48,40,38,25,26,26,26,35,25,48,0,0,0,0,0,0,0,0,0,0,0,0,0,0,0,0,0,0,0,0,0,0,0,0,0,0,0,0],"split_type":[0,0,0,0,0,0,0,0,0,0,0,0,0,0,0,0,0,0,0,0,0,0,0,0,0,0,0,0,0,0,0,0,0,0,0,0,0,0,0,0,0,0,0,0,0,0,0,0,0,0,0,0,0,0,0,0,0],"sum_hessian":[7.711E3,1.858E3,5.853E3,1.055E3,8.03E2,2.548E3,3.305E3,6.74E2,3.81E2,4.6E2,3.43E2,9.16E2,1.632E3,2.48E2,3.057E3,1.14E2,5.6E2,1.25E2,2.56E2,1.7E2,2.9E2,2.4E1,3.19E2,1E2,8.16E2,1.415E3,2.17E2,1.026E3,2.031E3,4.6E1,6.8E1,5.22E2,3.8E1,8E1,4.5E1,8.1E1,1.75E2,2.4E1,1.46E2,1.68E2,1.22E2,1.5E1,9E0,2.64E2,5.5E1,7E0,9.3E1,4.55E2,3.61E2,1.17E2,1.298E3,1.05E2,1.12E2,7.76E2,2.5E2,1.178E3,8.53E2],"tree_param":{"num_deleted":"0","num_feature":"49","num_nodes":"57","size_leaf_vector":"0"}},{"base_weights":[1.0742311E1,9.260108E0,1.3127034E1,6.9420943E0,1.0900999E1,1.2336751E1,1.4707916E1,9.039589E0,4.786029E0,1.1816688E1,8.227056E0,9.226036E0,1.30133915E1,7.281366E0,1.4815698E1,5.106144E0,1.0094998E1,3.125087E0,7.391603E0,9.408773E0,1.2773184E1,7.2219553E0,1.1782369E1,1.0795186E1,6.4030175E0,1.368629E1,1.0606067E1,2.509516E0,9.893524E0,1.6694063E1,1.4349382E1,3.8401857E-1,6.4328256E0,8.410826E0,1.2109428E1,-7.960933E-2,4.602568E0,4.0390224E0,8.831255E0,6.598774E0,1.08617E1,1.1081418E1,1.386915E1,1.9217381E0,7.9383707E0,4.946407E0,1.2582835E1,8.837058E0,1.26757965E1,8.423094E0,3.309264E0,1.0809034E1,1.4087191E1,9.110166E0,1.3909424E1,-3.8538647E-1,4.7770395E0,4.562458E0,1.6868011E1,1.2322478E1,1.4680872E1],"categories":[],"categories_nodes":[],"categories_segments":[],"categories_sizes":[],"default_left":[1,1,1,1,1,1,1,1,1,1,1,1,1,1,1,1,1,1,1,1,1,1,1,1,1,1,1,1,0,1,1,0,0,0,0,0,0,0,0,0,0,0,0,0,0,0,0,0,0,0,0,0,0,0,0,0,0,0,0,0,0],"id":19,"left_children":[1,3,5,7,9,11,13,15,17,19,21,23,25,27,29,31,33,35,37,39,41,43,45,47,49,51,53,55,-1,57,59,-1,-1,-1,-1,-1,-1,-1,-1,-1,-1,-1,-1,-1,-1,-1,-1,-1,-1,-1,-1,-1,-1,-1,-1,-1,-1,-1,-1,-1,-1],"loss_changes":[2.7187062E4,1.8059969E4,3.5154375E3,8.9064375E3,6.7340938E3,4.0454062E3,6.7734375E2,4.1081562E3,4.2094004E3,4.6611875E3,2.4699258E3,1.512293E3,2.483875E3,1.7460925E2,6.0659375E2,1.3381875E3,2.5749531E3,2.8365586E3,1.798418E3,2.3534648E3,2.5959688E3,2.1111504E3,7.9138477E2,7.275879E2,7.845757E2,1.3069219E3,1.6472812E3,4.779082E1,0E0,3.1554688E2,3.4384375E2,0E0,0E0,0E0,0E0,0E0,0E0,0E0,0E0,0E0,0E0,0E0,0E0,0E0,0E0,0E0,0E0,0E0,0E0,0E0,0E0,0E0,0E0,0E0,0E0,0E0,0E0,0E0,0E0,0E0,0E0],"parents":[2147483647,0,0,1,1,2,2,3,3,4,4,5,5,6,6,7,7,8,8,9,9,10,10,11,11,12,12,13,13,14,14,15,15,16,16,17,17,18,18,19,19,20,20,21,21,22,22,23,23,24,24,25,25,26,26,27,27,29,29,30,30],"right_children":[2,4,6,8,10,12,14,16,18,20,22,24,26,28,30,32,34,36,38,40,42,44,46,48,50,52,54,56,-1,58,60,-1,-1,-1,-1,-1,-1,-1,-1,-1,-1,-1,-1,-1,-1,-1,-1,-1,-1,-1,-1,-1,-1,-1,-1,-1,-1,-1,-1,-1,-1],"split_conditions":[1.4591134E-1,-2.0942676E-1,1.199106E0,-2.238717E-2,6.245641E-1,-8.8653445E-1,-2.158111E0,-7.9095614E-1,1.8558316E-1,-5.956483E-1,1.1731958E0,-1.328003E-2,1.0175328E0,1.02109775E-1,-1.5134653E-1,-8.597817E-1,-7.79319E-1,-7.055184E-1,-5.498403E-1,-9.072833E-1,-3.568273E-1,-1.2164607E0,-1.181572E0,-9.724703E-3,3.741371E-1,-1.181572E0,7.289077E-1,7.1373236E-1,9.893524E-1,-1.7674954E0,-1.0224345E0,3.8401857E-2,6.432826E-1,8.410826E-1,1.2109429E0,-7.960933E-3,4.6025681E-1,4.0390226E-1,8.831255E-1,6.598774E-1,1.0861701E0,1.1081418E0,1.3869151E0,1.9217382E-1,7.938371E-1,4.9464068E-1,1.2582835E0,8.837058E-1,1.2675797E0,8.423094E-1,3.309264E-1,1.0809034E0,1.4087191E0,9.110166E-1,1.3909425E0,-3.8538646E-2,4.7770396E-1,4.562458E-1,1.6868012E0,1.2322478E0,1.4680872E0],"split_indices":[25,24,25,36,45,24,42,42,42,42,24,45,36,47,47,26,24,35,26,25,35,26,42,42,14,42,24,26,0,42,26,0,0,0,0,0,0,0,0,0,0,0,0,0,0,0,0,0,0,0,0,0,0,0,0,0,0,0,0,0,0],"split_type":[0,0,0,0,0,0,0,0,0,0,0,0,0,0,0,0,0,0,0,0,0,0,0,0,0,0,0,0,0,0,0,0,0,0,0,0,0,0,0,0,0,0,0,0,0,0,0,0,0,0,0,0,0,0,0,0,0,0,0,0,0],"sum_hessian":[7.725E3,4.767E3,2.958E3,1.978E3,2.789E3,1.978E3,9.8E2,1.001E3,9.77E2,2.075E3,7.14E2,3.56E2,1.622E3,1.5E1,9.65E2,2.13E2,7.88E2,5.98E2,3.79E2,5.93E2,1.482E3,5.59E2,1.55E2,2.27E2,1.29E2,1.264E3,3.58E2,6E0,9E0,1.85E2,7.8E2,4.7E1,1.66E2,4.32E2,3.56E2,1.89E2,4.09E2,1.15E2,2.64E2,2.04E2,3.89E2,5.87E2,8.95E2,6.7E1,4.92E2,1.7E1,1.38E2,1.14E2,1.13E2,7.7E1,5.2E1,1.58E2,1.106E3,2.49E2,1.09E2,3E0,3E0,3E0,1.82E2,1.15E2,6.65E2],"tree_param":{"num_deleted":"0","num_feature":"49","num_nodes":"61","size_leaf_vector":"0"}},{"base_weights":[9.676704E0,5.627303E0,1.0947895E1,3.2189038E0,6.864615E0,9.181942E0,1.1844239E1,5.516176E0,1.6829013E0,4.088409E0,8.023623E0,1.01343E1,6.066988E0,1.2680476E1,1.0954638E1,2.6786551E0,6.987811E0,5.340447E0,7.538103E-1,6.4542327E0,2.3595676E0,5.2786674E0,9.125566E0,1.613391E1,9.719511E0,4.290103E0,8.561897E0,1.2061354E1,1.3437622E1,9.804142E0,1.2303076E1,-2.7668953E0,3.851574E0,5.952703E0,1.004783E1,-3.0688603E0,6.2380414E0,-3.328587E-1,5.312318E0,8.737654E0,3.1259997E0,5.068245E-1,5.6630445E0,7.8039837E0,3.0908709E0,7.020398E0,1.0423931E1,1.9904888E1,1.4600458E1,7.454151E0,1.0663699E1,5.714753E0,6.5521073E-1,1.2878249E1,7.1916423E0,1.2449176E1,1.0320648E1,1.5441578E1,1.2994929E1,1.1598947E1,7.4267864E0,1.1811991E1,1.2919501E1],"categories":[],"categories_nodes":[],"categories_segments":[],"categories_sizes":[],"default_left":[1,1,1,1,1,1,1,1,1,1,1,1,1,1,1,1,1,1,1,1,1,1,1,1,1,1,1,1,1,1,1,0,0,0,0,0,0,0,0,0,0,0,0,0,0,0,0,0,0,0,0,0,0,0,0,0,0,0,0,0,0,0,0],"id":20,"left_children":[1,3,5,7,9,11,13,15,17,19,21,23,25,27,29,31,33,35,37,39,41,43,45,47,49,51,53,55,57,59,61,-1,-1,-1,-1,-1,-1,-1,-1,-1,-1,-1,-1,-1,-1,-1,-1,-1,-1,-1,-1,-1,-1,-1,-1,-1,-1,-1,-1,-1,-1,-1,-1],"loss_changes":[3.9451062E4,5.449078E3,9.137E3,2.1961016E3,3.8669805E3,5.7856094E3,2.7408125E3,1.0252314E3,1.273695E3,1.4531289E3,2.5349922E3,3.5959531E3,2.0202578E3,7.7028125E2,2.8006094E3,5.663423E2,4.596504E2,5.9280273E2,1.4927985E3,1.120249E3,1.276313E3,1.3405249E3,1.5886562E3,2.6450977E2,2.9428125E3,1.4099727E3,1.0429688E3,6.168125E2,5.8534375E2,4.2703516E3,1.08640625E2,0E0,0E0,0E0,0E0,0E0,0E0,0E0,0E0,0E0,0E0,0E0,0E0,0E0,0E0,0E0,0E0,0E0,0E0,0E0,0E0,0E0,0E0,0E0,0E0,0E0,0E0,0E0,0E0,0E0,0E0,0E0,0E0],"parents":[2147483647,0,0,1,1,2,2,3,3,4,4,5,5,6,6,7,7,8,8,9,9,10,10,11,11,12,12,13,13,14,14,15,15,16,16,17,17,18,18,19,19,20,20,21,21,22,22,23,23,24,24,25,25,26,26,27,27,28,28,29,29,30,30],"right_children":[2,4,6,8,10,12,14,16,18,20,22,24,26,28,30,32,34,36,38,40,42,44,46,48,50,52,54,56,58,60,62,-1,-1,-1,-1,-1,-1,-1,-1,-1,-1,-1,-1,-1,-1,-1,-1,-1,-1,-1,-1,-1,-1,-1,-1,-1,-1,-1,-1,-1,-1,-1,-1],"split_conditions":[-6.808283E-1,-7.055184E-1,1.6427097E-1,-2.9369524E-1,-8.7128663E-1,3.5288876E-1,1.1223674E-2,-5.956483E-1,-1.1548829E0,-3.3860502E-1,-9.6391946E-1,-1.4138303E0,-3.8068596E-1,4.4023457E-1,8.558428E-1,-1.0595133E0,2.753179E-1,-2.6829963E0,6.19334E-1,3.242528E-1,-7.818901E-2,-2.238717E-2,-9.072833E-1,-9.830416E-1,-7.055184E-1,5.6513387E-1,-6.665479E-1,1.0175328E0,-7.424107E-1,6.7543787E-1,1.2038333E0,-2.7668953E-1,3.851574E-1,5.9527034E-1,1.004783E0,-3.0688605E-1,6.2380415E-1,-3.328587E-2,5.312318E-1,8.737654E-1,3.126E-1,5.068245E-2,5.6630445E-1,7.8039837E-1,3.090871E-1,7.0203984E-1,1.0423931E0,1.9904889E0,1.4600458E0,7.4541515E-1,1.0663699E0,5.714753E-1,6.552108E-2,1.287825E0,7.1916425E-1,1.2449176E0,1.0320648E0,1.5441579E0,1.299493E0,1.1598947E0,7.4267864E-1,1.1811991E0,1.2919501E0],"split_indices":[48,35,48,45,28,47,38,42,19,38,24,47,25,24,48,37,24,48,24,36,24,36,25,45,35,45,45,36,33,47,48,0,0,0,0,0,0,0,0,0,0,0,0,0,0,0,0,0,0,0,0,0,0,0,0,0,0,0,0,0,0,0,0],"split_type":[0,0,0,0,0,0,0,0,0,0,0,0,0,0,0,0,0,0,0,0,0,0,0,0,0,0,0,0,0,0,0,0,0,0,0,0,0,0,0,0,0,0,0,0,0,0,0,0,0,0,0,0,0,0,0,0,0,0,0,0,0,0,0],"sum_hessian":[7.675E3,1.835E3,5.84E3,6.24E2,1.211E3,1.97E3,3.87E3,2.49E2,3.75E2,3.58E2,8.53E2,1.507E3,4.63E2,1.988E3,1.882E3,8.6E1,1.63E2,7.5E1,3E2,1.5E2,2.08E2,2.46E2,6.07E2,9.5E1,1.412E3,2.72E2,1.91E2,1.103E3,8.85E2,1.02E3,8.62E2,1.5E1,7.1E1,1.24E2,3.9E1,7E0,6.8E1,2.43E2,5.7E1,8.8E1,6.2E1,1.34E2,7.4E1,1.13E2,1.33E2,2.34E2,3.73E2,2.4E1,7.1E1,4.18E2,9.94E2,1.95E2,7.7E1,4.4E1,1.47E2,8.97E2,2.06E2,1.54E2,7.31E2,5.79E2,4.41E2,4.91E2,3.71E2],"tree_param":{"num_deleted":"0","num_feature":"49","num_nodes":"63","size_leaf_vector":"0"}},{"base_weights":[8.764087E0,5.581858E0,1.0108486E1,4.9356E0,9.979454E0,8.502995E0,1.0742625E1,2.2360208E0,5.8015738E0,1.2132218E1,7.160078E0,6.6334667E0,9.783408E0,9.735223E0,1.1347123E1,4.26386E0,9.7385913E-1,7.270725E0,3.93085E0,8.280026E0,1.3575986E1,3.0141146E0,8.290807E0,9.884986E0,5.5539613E0,9.205642E0,1.4382578E1,8.912932E0,1.1472644E1,1.0866953E1,1.2345684E1,2.6574569E0,7.407895E0,-6.161364E-1,2.9629974E0,4.759671E0,8.274745E0,8.215239E0,3.0340354E0,1.0928132E1,5.0416493E0,1.1859586E1,1.6583567E1,7.882923E-1,7.8727984E0,1.0499327E1,5.777871E0,4.895839E0,1.1003302E1,7.2361813E0,4.119464E0,8.682985E0,1.4654812E1,1.837314E0,1.50303335E1,1.0610641E1,7.4318337E0,1.0786049E1,1.2021616E1,1.1974138E1,1.0220401E1,1.3089113E1,1.1317895E1],"categories":[],"categories_nodes":[],"categories_segments":[],"categories_sizes":[],"default_left":[1,1,1,1,1,1,1,1,1,1,1,1,1,1,1,1,1,1,1,1,1,1,1,1,1,1,1,1,1,1,1,0,0,0,0,0,0,0,0,0,0,0,0,0,0,0,0,0,0,0,0,0,0,0,0,0,0,0,0,0,0,0,0],"id":21,"left_children":[1,3,5,7,9,11,13,15,17,19,21,23,25,27,29,31,33,35,37,39,41,43,45,47,49,51,53,55,57,59,61,-1,-1,-1,-1,-1,-1,-1,-1,-1,-1,-1,-1,-1,-1,-1,-1,-1,-1,-1,-1,-1,-1,-1,-1,-1,-1,-1,-1,-1,-1,-1,-1],"loss_changes":[3.2624625E4,6.4048984E3,5.374875E3,4.6204766E3,1.6732754E3,3.5856016E3,2.231E3,1.2320674E3,4.0939883E3,7.941406E2,5.750698E2,2.1318457E3,2.2670938E3,1.967875E3,1.01515625E3,9.146726E2,9.474792E2,2.0758555E3,2.5186777E3,3.479558E2,4.0730664E2,3.0741638E2,4.9432324E2,8.0536426E2,1.1043672E3,2.1654297E3,7.768828E2,2.4054375E3,4.4472656E1,1.0423125E3,4.4096875E2,0E0,0E0,0E0,0E0,0E0,0E0,0E0,0E0,0E0,0E0,0E0,0E0,0E0,0E0,0E0,0E0,0E0,0E0,0E0,0E0,0E0,0E0,0E0,0E0,0E0,0E0,0E0,0E0,0E0,0E0,0E0,0E0],"parents":[2147483647,0,0,1,1,2,2,3,3,4,4,5,5,6,6,7,7,8,8,9,9,10,10,11,11,12,12,13,13,14,14,15,15,16,16,17,17,18,18,19,19,20,20,21,21,22,22,23,23,24,24,25,25,26,26,27,27,28,28,29,29,30,30],"right_children":[2,4,6,8,10,12,14,16,18,20,22,24,26,28,30,32,34,36,38,40,42,44,46,48,50,52,54,56,58,60,62,-1,-1,-1,-1,-1,-1,-1,-1,-1,-1,-1,-1,-1,-1,-1,-1,-1,-1,-1,-1,-1,-1,-1,-1,-1,-1,-1,-1,-1,-1,-1,-1],"split_conditions":[-4.6600062E-1,9.668146E-1,1.6427097E-1,-1.6659515E0,3.242528E-1,-3.568273E-1,-2.0503256E-1,-2.0530634E0,-6.3574684E-1,-7.055184E-1,-1.8885368E0,-4.0044916E-1,1.1140963E0,1.0089447E0,6.892462E-1,-2.1187506E0,-8.136131E-3,-7.055184E-1,-1.4439199E0,2.0412415E-1,-3.8068596E-1,1.3048179E0,2.2874923E-1,-8.7128663E-1,1.1223674E-2,1.199106E0,-1.7674954E0,5.864701E-1,1.2191322E0,-5.7336614E-3,9.6946216E-1,2.657457E-1,7.4078953E-1,-6.1613638E-2,2.9629976E-1,4.7596714E-1,8.2747453E-1,8.2152385E-1,3.0340356E-1,1.0928133E0,5.0416493E-1,1.1859586E0,1.6583567E0,7.882923E-2,7.8727984E-1,1.0499327E0,5.777871E-1,4.8958394E-1,1.1003302E0,7.2361815E-1,4.119464E-1,8.6829853E-1,1.4654812E0,1.837314E-1,1.5030334E0,1.0610641E0,7.431834E-1,1.0786049E0,1.2021617E0,1.1974138E0,1.0220401E0,1.3089113E0,1.1317896E0],"split_indices":[48,42,48,48,36,35,42,47,47,35,48,47,24,48,35,48,35,35,19,40,25,30,15,28,38,25,42,47,48,30,48,0,0,0,0,0,0,0,0,0,0,0,0,0,0,0,0,0,0,0,0,0,0,0,0,0,0,0,0,0,0,0,0],"split_type":[0,0,0,0,0,0,0,0,0,0,0,0,0,0,0,0,0,0,0,0,0,0,0,0,0,0,0,0,0,0,0,0,0,0,0,0,0,0,0,0,0,0,0,0,0,0,0,0,0,0,0,0,0,0,0,0,0,0,0,0,0,0,0],"sum_hessian":[7.638E3,2.27E3,5.368E3,1.981E3,2.89E2,1.524E3,3.844E3,4.82E2,1.499E3,1.62E2,1.27E2,6.22E2,9.02E2,1.448E3,2.396E3,1.84E2,2.98E2,8.38E2,6.61E2,4.6E1,1.16E2,2.8E1,9.9E1,1.53E2,4.69E2,8.04E2,9.8E1,9.87E2,4.61E2,1.626E3,7.7E2,1.23E2,6.1E1,1.66E2,1.32E2,2.41E2,5.97E2,1.13E2,5.48E2,2.4E1,2.2E1,7.7E1,3.9E1,2E1,8E0,5.1E1,4.8E1,2.9E1,1.24E2,2.14E2,2.55E2,7.36E2,6.8E1,5E0,9.3E1,4.57E2,5.3E2,2.14E2,2.47E2,5.93E2,1.033E3,4.4E2,3.3E2],"tree_param":{"num_deleted":"0","num_feature":"49","num_nodes":"63","size_leaf_vector":"0"}},{"base_weights":[7.8992553E0,5.7531767E0,9.383691E0,6.6037145E0,2.9871817E0,1.0220708E1,8.489211E0,6.0668516E0,1.1237033E1,2.119589E0,6.514735E0,8.525219E0,1.0654411E1,7.332506E0,1.0060655E1,4.8085036E0,8.084768E0,1.3056828E1,9.385826E0,7.043331E-1,3.7985854E0,4.30202E0,9.171892E0,7.049533E0,9.772506E0,1.1406326E1,9.90236E0,9.667055E0,6.2874465E0,1.0878339E1,9.566824E0,2.4176357E0,6.0339985E0,7.696134E0,1.5900384E1,1.4558727E1,9.487178E0,1.4491502E1,8.226677E0,-1.9940982E0,2.1072512E0,-1.409673E-1,4.4813695E0,-1.4212265E0,5.519135E0,-3.0842865E0,1.0026137E1,6.093484E0,9.859038E0,6.2908497E0,1.0562459E1,1.3173776E1,1.101587E1,3.231026E0,1.0060095E1,6.968945E0,1.0589069E1,5.8820233E0,1.1801836E1,8.471324E0,1.0705938E1],"categories":[],"categories_nodes":[],"categories_segments":[],"categories_sizes":[],"default_left":[1,1,1,1,1,1,1,1,1,1,1,1,1,1,1,1,1,1,1,1,1,1,1,1,1,1,1,1,1,0,1,0,0,0,0,0,0,0,0,0,0,0,0,0,0,0,0,0,0,0,0,0,0,0,0,0,0,0,0,0,0],"id":22,"left_children":[1,3,5,7,9,11,13,15,17,19,21,23,25,27,29,31,33,35,37,39,41,43,45,47,49,51,53,55,57,-1,59,-1,-1,-1,-1,-1,-1,-1,-1,-1,-1,-1,-1,-1,-1,-1,-1,-1,-1,-1,-1,-1,-1,-1,-1,-1,-1,-1,-1,-1,-1],"loss_changes":[2.4281656E4,7.3344453E3,3.292875E3,5.8768438E3,2.2417646E3,1.6202969E3,3.9033438E3,5.405258E3,7.095488E2,1.406417E3,8.130747E2,8.127578E2,9.326094E2,3.0230547E3,2.694375E2,3.8617969E3,2.374379E3,5.159531E2,6.2648145E2,1.2269762E3,7.2958496E2,5.7207764E2,7.114595E2,5.389072E2,6.403906E2,4.8839844E2,9.482344E2,8.9391797E2,1.8890195E3,0E0,6.3933203E2,0E0,0E0,0E0,0E0,0E0,0E0,0E0,0E0,0E0,0E0,0E0,0E0,0E0,0E0,0E0,0E0,0E0,0E0,0E0,0E0,0E0,0E0,0E0,0E0,0E0,0E0,0E0,0E0,0E0,0E0],"parents":[2147483647,0,0,1,1,2,2,3,3,4,4,5,5,6,6,7,7,8,8,9,9,10,10,11,11,12,12,13,13,14,14,15,15,16,16,17,17,18,18,19,19,20,20,21,21,22,22,23,23,24,24,25,25,26,26,27,27,28,28,30,30],"right_children":[2,4,6,8,10,12,14,16,18,20,22,24,26,28,30,32,34,36,38,40,42,44,46,48,50,52,54,56,58,-1,60,-1,-1,-1,-1,-1,-1,-1,-1,-1,-1,-1,-1,-1,-1,-1,-1,-1,-1,-1,-1,-1,-1,-1,-1,-1,-1,-1,-1,-1,-1],"split_conditions":[-7.861653E-2,1.0175328E0,-2.238717E-2,1.1621225E0,6.8419766E-1,-7.700465E-1,8.1141186E-1,-3.8068596E-1,1.1223674E-2,4.711427E-3,-3.8068596E-1,-9.724703E-3,1.1223674E-2,-6.884337E-1,1.0807135E0,-4.8028842E-1,1.7257032E0,1.3048179E0,-8.6470145E-1,-1.3701302E0,-1.1588225E0,-9.86264E-1,-2.003803E0,9.7621965E-1,-1.0542095E0,-8.834078E-2,-1.9628034E0,-8.7128663E-1,1.7257032E0,1.0878339E0,1.1905887E0,2.4176358E-1,6.033999E-1,7.6961344E-1,1.5900384E0,1.4558728E0,9.487178E-1,1.4491502E0,8.226677E-1,-1.9940983E-1,2.1072511E-1,-1.4096729E-2,4.4813696E-1,-1.4212266E-1,5.519135E-1,-3.0842865E-1,1.0026138E0,6.093484E-1,9.8590386E-1,6.29085E-1,1.0562459E0,1.3173776E0,1.101587E0,3.231026E-1,1.0060095E0,6.968945E-1,1.0589069E0,5.8820236E-1,1.1801836E0,8.471324E-1,1.0705938E0],"split_indices":[48,36,36,42,26,26,48,25,38,31,25,42,38,38,47,26,25,30,2,48,26,42,48,48,35,47,42,28,25,0,48,0,0,0,0,0,0,0,0,0,0,0,0,0,0,0,0,0,0,0,0,0,0,0,0,0,0,0,0,0,0],"split_type":[0,0,0,0,0,0,0,0,0,0,0,0,0,0,0,0,0,0,0,0,0,0,0,0,0,0,0,0,0,0,0,0,0,0,0,0,0,0,0,0,0,0,0,0,0,0,0,0,0,0,0,0,0,0,0,0,0,0,0,0,0],"sum_hessian":[7.638E3,3.125E3,4.513E3,2.389E3,7.36E2,2.326E3,2.187E3,2.143E3,2.46E2,5.92E2,1.44E2,4.78E2,1.848E3,1.263E3,9.24E2,1.322E3,8.21E2,1.21E2,1.25E2,3.22E2,2.7E2,8E1,6.4E1,2.22E2,2.56E2,9.17E2,9.31E2,3.88E2,8.75E2,3.4E2,5.84E2,4.49E2,8.73E2,7.84E2,3.7E1,8.3E1,3.8E1,2.1E1,1.04E2,1.1E2,2.12E2,4E1,2.3E2,1.4E1,6.6E1,4E0,6E1,1.68E2,5.4E1,4.9E1,2.07E2,1.6E2,7.57E2,2.2E1,9.09E2,1.01E2,2.87E2,8.17E2,5.8E1,3.02E2,2.82E2],"tree_param":{"num_deleted":"0","num_feature":"49","num_nodes":"61","size_leaf_vector":"0"}},{"base_weights":[7.058421E0,5.091424E0,8.507249E0,3.7151945E0,6.577804E0,7.0376945E0,9.061782E0,2.3608289E0,5.312164E0,5.3585916E0,8.666452E0,5.8042817E0,8.555884E0,9.56E0,7.7902694E0,3.7459153E-1,3.6700778E0,2.8529842E0,6.4400826E0,3.4347842E0,6.771217E0,1.0550148E1,7.0921736E0,7.632604E0,4.665707E0,7.693076E0,9.266849E0,1.1368447E1,9.210492E0,6.6841483E0,9.242461E0,-1.1901937E0,2.5426834E0,-2.7809603E0,4.0808687E0,4.138321E0,-5.4141533E-1,3.7958705E0,7.525427E0,4.573647E0,1.4009826E0,5.3021545E0,9.337772E0,7.837598E0,1.1831067E1,3.99235E0,8.165449E0,1.1096557E1,6.891648E0,7.9106746E0,3.7087114E0,9.324172E0,6.4138865E0,1.3484494E1,1.0822701E1,8.151467E0,9.678433E0,7.9101396E0,4.158096E0,1.0169899E1,8.929326E0],"categories":[],"categories_nodes":[],"categories_segments":[],"categories_sizes":[],"default_left":[1,1,1,1,1,1,1,1,1,1,1,1,1,1,1,1,1,1,1,1,1,1,1,1,1,1,0,1,1,1,1,0,0,0,0,0,0,0,0,0,0,0,0,0,0,0,0,0,0,0,0,0,0,0,0,0,0,0,0,0,0],"id":23,"left_children":[1,3,5,7,9,11,13,15,17,19,21,23,25,27,29,31,33,35,37,39,41,43,45,47,49,51,-1,53,55,57,59,-1,-1,-1,-1,-1,-1,-1,-1,-1,-1,-1,-1,-1,-1,-1,-1,-1,-1,-1,-1,-1,-1,-1,-1,-1,-1,-1,-1,-1,-1],"loss_changes":[2.2011594E4,6.6953516E3,3.5667188E3,3.6816562E3,3.9719453E3,2.2442188E3,1.9723438E3,2.4066694E3,2.1534785E3,2.6916445E3,1.6451445E3,1.3778477E3,2.6425E2,1.3597969E3,1.4079844E3,1.2548949E3,1.4900645E3,1.0842511E3,1.5096914E3,9.779863E2,2.1184883E3,8.1760547E2,1.0287031E3,5.882871E2,1.278044E3,4.680752E2,0E0,2.824961E2,8.8596875E2,1.5867988E3,2.3320312E1,0E0,0E0,0E0,0E0,0E0,0E0,0E0,0E0,0E0,0E0,0E0,0E0,0E0,0E0,0E0,0E0,0E0,0E0,0E0,0E0,0E0,0E0,0E0,0E0,0E0,0E0,0E0,0E0,0E0,0E0],"parents":[2147483647,0,0,1,1,2,2,3,3,4,4,5,5,6,6,7,7,8,8,9,9,10,10,11,11,12,12,13,13,14,14,15,15,16,16,17,17,18,18,19,19,20,20,21,21,22,22,23,23,24,24,25,25,27,27,28,28,29,29,30,30],"right_children":[2,4,6,8,10,12,14,16,18,20,22,24,26,28,30,32,34,36,38,40,42,44,46,48,50,52,-1,54,56,58,60,-1,-1,-1,-1,-1,-1,-1,-1,-1,-1,-1,-1,-1,-1,-1,-1,-1,-1,-1,-1,-1,-1,-1,-1,-1,-1,-1,-1,-1,-1],"split_conditions":[-4.6264734E-2,3.5540387E-3,-5.1785135E-1,4.711427E-3,3.40555E-1,7.399498E-1,7.1088105E-1,-1.0832121E0,-9.072833E-1,-2.9070336E-1,-2.238717E-2,2.1120787E-1,1.0519255E0,-4.3984495E-2,8.1597567E-1,-8.136131E-3,-1.5765584E0,7.331869E-1,-6.1313605E-1,4.17686E-1,4.291187E-1,-9.072833E-1,-7.641674E-1,-6.672694E-1,-7.156671E-1,9.903947E-1,9.2668486E-1,-8.0796707E-1,-3.8068596E-1,7.1633446E-1,4.845961E-2,-1.1901937E-1,2.5426835E-1,-2.7809605E-1,4.0808687E-1,4.138321E-1,-5.4141533E-2,3.7958705E-1,7.525427E-1,4.573647E-1,1.4009826E-1,5.3021544E-1,9.337773E-1,7.837598E-1,1.1831068E0,3.99235E-1,8.1654495E-1,1.1096557E0,6.891648E-1,7.910675E-1,3.7087116E-1,9.324172E-1,6.4138865E-1,1.3484495E0,1.0822701E0,8.1514674E-1,9.6784335E-1,7.9101396E-1,4.158096E-1,1.01699E0,8.929326E-1],"split_indices":[48,28,26,31,35,48,38,48,25,26,36,47,48,47,48,35,26,34,26,39,32,25,26,47,36,47,0,47,25,47,44,0,0,0,0,0,0,0,0,0,0,0,0,0,0,0,0,0,0,0,0,0,0,0,0,0,0,0,0,0,0],"split_type":[0,0,0,0,0,0,0,0,0,0,0,0,0,0,0,0,0,0,0,0,0,0,0,0,0,0,0,0,0,0,0,0,0,0,0,0,0,0,0,0,0,0,0,0,0,0,0,0,0,0,0,0,0,0,0,0,0,0,0,0,0],"sum_hessian":[7.738E3,3.284E3,4.454E3,1.707E3,1.577E3,1.224E3,3.23E3,9.25E2,7.82E2,9.98E2,5.79E2,6.78E2,5.46E2,2.316E3,9.14E2,3.68E2,5.57E2,2.47E2,5.35E2,4.24E2,5.74E2,2.61E2,3.18E2,2.58E2,4.2E2,2.52E2,2.94E2,3.7E2,1.946E3,5.22E2,3.92E2,2.14E2,1.54E2,3.3E1,5.24E2,1.79E2,6.8E1,1.57E2,3.78E2,2.71E2,1.53E2,3.67E2,2.07E2,8.6E1,1.75E2,8.3E1,2.35E2,4.3E1,2.15E2,9.4E1,3.26E2,1.08E2,1.44E2,7.1E1,2.99E2,6.02E2,1.344E3,3.5E2,1.72E2,9.1E1,3.01E2],"tree_param":{"num_deleted":"0","num_feature":"49","num_nodes":"61","size_leaf_vector":"0"}},{"base_weights":[6.32501E0,3.2719324E0,7.1232395E0,4.3137703E0,1.3945397E0,6.320587E0,8.266267E0,1.4506084E0,5.037422E0,6.502545E-2,3.0601165E0,4.9998612E0,7.6071935E0,8.563133E0,5.539806E0,2.0350904E0,-5.2359304E0,6.1418242E0,3.294056E0,-1.5214767E0,1.7432276E0,2.3713355E0,8.101011E0,4.421686E0,8.207449E0,8.928697E0,7.194277E0,1.1088024E1,8.272844E0,4.001023E0,8.213867E0,-7.477913E-1,3.0740736E0,-7.7184696E0,2.265857E0,5.002868E0,8.098122E0,4.496262E0,1.1223484E0,3.7813005E0,-2.1604462E0,-5.546977E-1,4.399929E0,3.529058E0,3.2346168E-1,6.2568502E0,1.443485E1,3.9787264E0,8.733429E0,1.222955E1,7.18727E0,7.536644E0,9.793836E0,5.8810945E0,8.247774E0,-3.127863E0,1.1289678E1,6.2683363E0,8.71144E0,-2.2097402E0,4.8536057E0,7.2256064E0,9.268553E0],"categories":[],"categories_nodes":[],"categories_segments":[],"categories_sizes":[],"default_left":[1,1,1,1,1,1,1,1,1,1,1,1,1,1,1,1,1,1,1,1,1,1,1,1,1,1,1,1,1,1,1,0,0,0,0,0,0,0,0,0,0,0,0,0,0,0,0,0,0,0,0,0,0,0,0,0,0,0,0,0,0,0,0],"id":24,"left_children":[1,3,5,7,9,11,13,15,17,19,21,23,25,27,29,31,33,35,37,39,41,43,45,47,49,51,53,55,57,59,61,-1,-1,-1,-1,-1,-1,-1,-1,-1,-1,-1,-1,-1,-1,-1,-1,-1,-1,-1,-1,-1,-1,-1,-1,-1,-1,-1,-1,-1,-1,-1,-1],"loss_changes":[1.8686E4,3.109793E3,5.5304375E3,2.1143535E3,1.2620135E3,6.0435938E3,1.9817344E3,8.235532E2,1.5528027E3,8.4931824E2,8.5922437E2,3.2444102E3,9.2396875E2,1.564E3,9.917217E2,5.5744135E2,3.3408813E2,1.0713262E3,8.278125E2,5.6385254E2,9.487003E2,5.299332E2,2.6010193E2,2.8320527E3,1.01588086E3,4.404297E2,1.8675547E3,6.946543E2,1.7301094E3,8.579558E2,2.6836426E1,0E0,0E0,0E0,0E0,0E0,0E0,0E0,0E0,0E0,0E0,0E0,0E0,0E0,0E0,0E0,0E0,0E0,0E0,0E0,0E0,0E0,0E0,0E0,0E0,0E0,0E0,0E0,0E0,0E0,0E0,0E0,0E0],"parents":[2147483647,0,0,1,1,2,2,3,3,4,4,5,5,6,6,7,7,8,8,9,9,10,10,11,11,12,12,13,13,14,14,15,15,16,16,17,17,18,18,19,19,20,20,21,21,22,22,23,23,24,24,25,25,26,26,27,27,28,28,29,29,30,30],"right_children":[2,4,6,8,10,12,14,16,18,20,22,24,26,28,30,32,34,36,38,40,42,44,46,48,50,52,54,56,58,60,62,-1,-1,-1,-1,-1,-1,-1,-1,-1,-1,-1,-1,-1,-1,-1,-1,-1,-1,-1,-1,-1,-1,-1,-1,-1,-1,-1,-1,-1,-1,-1,-1],"split_conditions":[-8.396251E-1,6.708928E-1,3.40555E-1,-9.86264E-1,4.711427E-3,3.9934048E-1,1.3641727E0,1.4428668E0,2.0412415E-1,3.5540387E-3,1.3866284E0,9.668146E-1,3.280122E-1,-8.35408E-1,6.811248E-1,-1.0958931E0,-1.2374907E0,4.4383508E-1,4.17686E-1,-1.118814E0,-1.3701302E0,4.17686E-1,3.3984572E-1,1.199106E0,-9.819542E-1,-1.118814E0,9.248655E-1,-1.9628034E0,-9.935725E-2,-1.3235657E0,4.4383508E-1,-7.477913E-2,3.0740735E-1,-7.7184695E-1,2.265857E-1,5.002868E-1,8.098122E-1,4.496262E-1,1.12234846E-1,3.7813005E-1,-2.1604462E-1,-5.546977E-2,4.399929E-1,3.529058E-1,3.234617E-2,6.2568504E-1,1.443485E0,3.9787266E-1,8.7334293E-1,1.2229551E0,7.1872705E-1,7.5366443E-1,9.793836E-1,5.8810943E-1,8.247774E-1,-3.127863E-1,1.1289678E0,6.268336E-1,8.71144E-1,-2.2097401E-1,4.853606E-1,7.2256064E-1,9.2685527E-1],"split_indices":[48,36,35,42,31,48,36,15,40,28,35,42,47,47,48,46,48,31,39,20,48,39,5,25,47,20,48,42,48,29,31,0,0,0,0,0,0,0,0,0,0,0,0,0,0,0,0,0,0,0,0,0,0,0,0,0,0,0,0,0,0,0,0],"split_type":[0,0,0,0,0,0,0,0,0,0,0,0,0,0,0,0,0,0,0,0,0,0,0,0,0,0,0,0,0,0,0,0,0,0,0,0,0,0,0,0,0,0,0,0,0,0,0,0,0,0,0,0,0,0,0,0,0,0,0,0,0,0,0],"sum_hessian":[7.676E3,1.592E3,6.084E3,1.023E3,5.69E2,3.578E3,2.506E3,2.07E2,8.16E2,3.17E2,2.52E2,1.768E3,1.81E3,2.258E3,2.48E2,1.91E2,1.6E1,4.98E2,3.18E2,1.63E2,1.54E2,2.23E2,2.9E1,1.5E3,2.68E2,4.26E2,1.384E3,2.29E2,2.029E3,1.59E2,8.9E1,5.2E1,1.39E2,1.2E1,4E0,3.17E2,1.81E2,2.04E2,1.14E2,1.7E1,1.46E2,8.3E1,7.1E1,1.42E2,8.1E1,2.4E1,5E0,1.362E3,1.38E2,5.2E1,2.16E2,1.67E2,2.59E2,6.19E2,7.65E2,3E0,2.26E2,3.67E2,1.662E3,1.9E1,1.4E2,5E1,3.9E1],"tree_param":{"num_deleted":"0","num_feature":"49","num_nodes":"63","size_leaf_vector":"0"}},{"base_weights":[5.7472496E0,2.9749477E0,6.4502707E0,4.888803E0,1.9776559E0,4.1839085E0,6.8474636E0,1.6510606E0,5.654767E0,8.527758E-1,4.0979023E0,3.3740132E0,7.2522774E0,7.4541473E0,5.440387E0,7.53247E-1,9.925402E0,4.9807763E0,9.491274E0,-1.361671E0,1.8135465E0,2.9896579E0,7.3155336E0,6.5071464E0,2.7418096E0,7.812322E0,2.373235E0,6.315378E0,8.112251E0,3.9969084E0,6.3608212E0,-3.8360758E0,1.743827E0,-2.2778286E-1,5.3950667E0,8.498871E0,1.7502625E1,3.0642297E0,-3.153164E0,-1.0397279E0,2.5450003E0,1.5533118E0,5.502045E0,5.6236978E0,1.0680302E1,5.4916363E0,1.1081403E1,1.6940475E0,5.4796886E0,3.8580863E0,8.564861E0,-3.27839E0,5.4332185E0,6.8647637E0,4.2133474E0,1.5443914E0,8.233894E0,2.523565E0,5.56097E0,5.7729883E0,7.842814E0],"categories":[],"categories_nodes":[],"categories_segments":[],"categories_sizes":[],"default_left":[1,1,1,1,1,1,1,1,1,1,1,1,1,1,1,1,0,1,1,1,1,1,1,1,1,1,1,1,1,1,1,0,0,0,0,0,0,0,0,0,0,0,0,0,0,0,0,0,0,0,0,0,0,0,0,0,0,0,0,0,0],"id":25,"left_children":[1,3,5,7,9,11,13,15,17,19,21,23,25,27,29,31,-1,33,35,37,39,41,43,45,47,49,51,53,55,57,59,-1,-1,-1,-1,-1,-1,-1,-1,-1,-1,-1,-1,-1,-1,-1,-1,-1,-1,-1,-1,-1,-1,-1,-1,-1,-1,-1,-1,-1,-1],"loss_changes":[1.4915891E4,2.9525908E3,5.4732656E3,1.307541E3,2.4339988E3,2.246872E3,4.397578E3,7.576918E2,1.0620225E3,1.4258174E3,1.2404653E3,1.4182236E3,5.0063086E2,2.6692031E3,2.0605234E3,4.340221E2,0E0,7.931631E2,3.5212842E2,1.6192429E3,9.772931E2,9.477478E2,4.522744E2,5.0121436E2,1.7262485E3,4.7282812E2,3.8098364E2,1.5116133E3,1.8224375E3,1.4008672E3,7.884297E2,0E0,0E0,0E0,0E0,0E0,0E0,0E0,0E0,0E0,0E0,0E0,0E0,0E0,0E0,0E0,0E0,0E0,0E0,0E0,0E0,0E0,0E0,0E0,0E0,0E0,0E0,0E0,0E0,0E0,0E0],"parents":[2147483647,0,0,1,1,2,2,3,3,4,4,5,5,6,6,7,7,8,8,9,9,10,10,11,11,12,12,13,13,14,14,15,15,17,17,18,18,19,19,20,20,21,21,22,22,23,23,24,24,25,25,26,26,27,27,28,28,29,29,30,30],"right_children":[2,4,6,8,10,12,14,16,18,20,22,24,26,28,30,32,-1,34,36,38,40,42,44,46,48,50,52,54,56,58,60,-1,-1,-1,-1,-1,-1,-1,-1,-1,-1,-1,-1,-1,-1,-1,-1,-1,-1,-1,-1,-1,-1,-1,-1,-1,-1,-1,-1,-1,-1],"split_conditions":[-8.469248E-1,-3.6902714E-1,-9.072833E-1,-9.86264E-1,-7.294291E-2,9.668146E-1,4.17686E-1,1.0276423E0,6.7568564E-1,-6.296922E-1,3.8089103E-1,-9.968697E-1,1.3998411E0,-3.565839E-1,2.7363715E-1,-8.224797E-1,9.925402E-1,-1.7245839E0,4.255171E-1,-8.658461E-1,-9.86264E-1,1.8392037E-1,3.40555E-1,1.3220824E0,8.2220364E-1,-8.450657E-1,-3.4188166E-1,1.0175328E0,-1.9628034E0,-8.136131E-3,7.715067E-1,-3.836076E-1,1.743827E-1,-2.2778286E-2,5.395067E-1,8.498871E-1,1.7502625E0,3.0642298E-1,-3.153164E-1,-1.0397279E-1,2.5450003E-1,1.5533118E-1,5.502045E-1,5.6236976E-1,1.0680302E0,5.4916364E-1,1.1081403E0,1.6940475E-1,5.4796886E-1,3.8580865E-1,8.5648614E-1,-3.27839E-1,5.4332185E-1,6.864764E-1,4.2133474E-1,1.5443914E-1,8.233895E-1,2.523565E-1,5.56097E-1,5.772988E-1,7.8428143E-1],"split_indices":[48,36,25,42,24,42,39,17,8,26,42,45,45,26,48,26,0,26,33,19,42,26,35,31,24,26,17,36,42,35,42,0,0,0,0,0,0,0,0,0,0,0,0,0,0,0,0,0,0,0,0,0,0,0,0,0,0,0,0,0,0],"split_type":[0,0,0,0,0,0,0,0,0,0,0,0,0,0,0,0,0,0,0,0,0,0,0,0,0,0,0,0,0,0,0,0,0,0,0,0,0,0,0,0,0,0,0,0,0,0,0,0,0,0,0,0,0,0,0,0,0,0,0,0,0],"sum_hessian":[7.662E3,1.551E3,6.111E3,5.3E2,1.021E3,9.13E2,5.198E3,1.02E2,4.28E2,6.68E2,3.53E2,7.24E2,1.89E2,3.629E3,1.569E3,9.3E1,9E0,3.66E2,6.2E1,2.02E2,4.66E2,2.64E2,8.9E1,1.2E2,6.04E2,1.69E2,2E1,1.333E3,2.296E3,6.13E2,9.56E2,1.6E1,7.7E1,2.7E1,3.39E2,5.7E1,5E0,5.8E1,1.44E2,9.5E1,3.71E2,1.69E2,9.5E1,6.1E1,2.8E1,1E2,2E1,4.38E2,1.66E2,2.8E1,1.41E2,7E0,1.3E1,1.055E3,2.78E2,4.2E1,2.254E3,3.17E2,2.96E2,6.88E2,2.68E2],"tree_param":{"num_deleted":"0","num_feature":"49","num_nodes":"61","size_leaf_vector":"0"}},{"base_weights":[5.1098585E0,3.7006881E0,6.318429E0,2.9109437E0,5.990439E0,8.281826E0,6.0478325E0,1.6979774E0,4.5192714E0,6.8857183E0,3.2464042E0,6.159512E0,8.866132E0,5.419057E0,6.943966E0,-1.1870472E0,2.3906E0,2.9411159E0,5.6431093E0,5.78966E0,8.786071E0,1.4017534E0,5.396843E0,4.7628036E0,8.937021E0,1.0435598E1,8.0923605E0,4.1622577E0,6.5100594E0,6.161287E0,7.5408072E0,3.6750288E0,-1.9926828E0,4.2941904E0,1.6545683E0,6.4250793E0,1.6512065E0,9.021067E0,4.849254E0,8.082725E0,4.6390343E0,7.0199385E0,1.0687285E1,-2.031652E0,3.4792638E0,2.660968E0,6.6309686E0,2.0064552E0,6.3288727E0,9.417181E0,4.96669E0,1.0600338E1,2.8021526E0,6.398532E-1,8.233217E0,6.056383E0,3.006332E0,7.2707744E0,6.0866413E0,5.493862E0,7.556072E0,8.429567E0,6.893566E0],"categories":[],"categories_nodes":[],"categories_segments":[],"categories_sizes":[],"default_left":[1,1,1,1,1,1,1,1,1,1,1,1,1,1,1,1,1,1,1,1,1,1,1,1,1,1,1,1,1,1,1,0,0,0,0,0,0,0,0,0,0,0,0,0,0,0,0,0,0,0,0,0,0,0,0,0,0,0,0,0,0,0,0],"id":26,"left_children":[1,3,5,7,9,11,13,15,17,19,21,23,25,27,29,31,33,35,37,39,41,43,45,47,49,51,53,55,57,59,61,-1,-1,-1,-1,-1,-1,-1,-1,-1,-1,-1,-1,-1,-1,-1,-1,-1,-1,-1,-1,-1,-1,-1,-1,-1,-1,-1,-1,-1,-1,-1,-1],"loss_changes":[1.3085234E4,6.4129375E3,2.1505E3,5.1542676E3,2.2156797E3,5.641914E2,2.0156562E3,3.02017E3,1.9999766E3,1.377998E3,8.8893384E2,3.8804443E2,3.8795703E2,2.9154336E3,6.5377344E2,1.155022E3,1.6994375E3,2.1240396E3,1.7341602E3,1.1181484E3,7.6106836E2,8.844196E2,3.335022E2,3.1536523E2,2.185791E1,1.27487305E2,2.729121E2,2.1712598E3,3.251914E2,5.6730664E2,4.2853906E2,0E0,0E0,0E0,0E0,0E0,0E0,0E0,0E0,0E0,0E0,0E0,0E0,0E0,0E0,0E0,0E0,0E0,0E0,0E0,0E0,0E0,0E0,0E0,0E0,0E0,0E0,0E0,0E0,0E0,0E0,0E0,0E0],"parents":[2147483647,0,0,1,1,2,2,3,3,4,4,5,5,6,6,7,7,8,8,9,9,10,10,11,11,12,12,13,13,14,14,15,15,16,16,17,17,18,18,19,19,20,20,21,21,22,22,23,23,24,24,25,25,26,26,27,27,28,28,29,29,30,30],"right_children":[2,4,6,8,10,12,14,16,18,20,22,24,26,28,30,32,34,36,38,40,42,44,46,48,50,52,54,56,58,60,62,-1,-1,-1,-1,-1,-1,-1,-1,-1,-1,-1,-1,-1,-1,-1,-1,-1,-1,-1,-1,-1,-1,-1,-1,-1,-1,-1,-1,-1,-1,-1,-1],"split_conditions":[7.0215255E-2,3.740673E-1,-6.0824104E-2,-3.8068596E-1,1.0175328E0,-7.055184E-1,4.5468122E-1,-9.775256E-1,-8.268697E-1,3.40555E-1,5.006646E-3,4.4447213E-1,-5.424686E-1,7.703428E-1,-1.6087422E-1,-1.0119331E0,-7.156671E-1,-7.156671E-1,-1.0382624E0,-4.425842E-1,-3.7025577E-1,-7.055184E-1,-9.072833E-1,-4.5196256E-1,1.118565E0,1.662851E0,7.795952E-2,-3.3860502E-1,1.6988294E-1,6.892462E-1,8.500837E-1,3.675029E-1,-1.9926828E-1,4.2941904E-1,1.6545683E-1,6.42508E-1,1.6512065E-1,9.021067E-1,4.8492542E-1,8.082725E-1,4.6390343E-1,7.019939E-1,1.0687286E0,-2.031652E-1,3.4792638E-1,2.660968E-1,6.6309685E-1,2.0064552E-1,6.328873E-1,9.417181E-1,4.9666902E-1,1.0600338E0,2.8021526E-1,6.398532E-2,8.2332176E-1,6.056383E-1,3.006332E-1,7.270774E-1,6.0866416E-1,5.493862E-1,7.5560725E-1,8.429567E-1,6.893566E-1],"split_indices":[48,24,47,25,36,35,24,26,24,35,26,48,47,48,26,45,36,36,38,30,7,35,25,29,15,14,48,38,44,35,48,0,0,0,0,0,0,0,0,0,0,0,0,0,0,0,0,0,0,0,0,0,0,0,0,0,0,0,0,0,0,0,0],"split_type":[0,0,0,0,0,0,0,0,0,0,0,0,0,0,0,0,0,0,0,0,0,0,0,0,0,0,0,0,0,0,0,0,0,0,0,0,0,0,0,0,0,0,0,0,0,0,0,0,0,0,0,0,0,0,0,0,0,0,0,0,0,0,0],"sum_hessian":[7.696E3,3.555E3,4.141E3,2.645E3,9.1E2,4.98E2,3.643E3,1.509E3,1.136E3,6.85E2,2.25E2,1.1E2,3.88E2,2.145E3,1.498E3,2.92E2,1.217E3,4.74E2,6.62E2,4.37E2,2.48E2,1.22E2,1.03E2,7.5E1,3.5E1,1.24E2,2.64E2,9.99E2,1.146E3,6.53E2,8.45E2,4.1E1,2.51E2,3.38E2,8.79E2,1.27E2,3.47E2,1.24E2,5.38E2,1.44E2,2.93E2,1.31E2,1.17E2,4.6E1,7.6E1,3.3E1,7E1,2.8E1,4.7E1,3E1,5E0,1.21E2,3E0,5E0,2.59E2,3.77E2,6.22E2,4.04E2,7.42E2,4.45E2,2.08E2,3.51E2,4.94E2],"tree_param":{"num_deleted":"0","num_feature":"49","num_nodes":"63","size_leaf_vector":"0"}},{"base_weights":[4.64151E0,3.3851364E0,5.564688E0,2.4217088E0,5.377273E0,3.7016628E0,6.043622E0,-6.6067284E-1,3.052483E0,3.2803788E0,5.9807982E0,2.3592048E0,5.646923E0,5.0360303E0,6.8480377E0,4.0330143E0,-1.3852044E0,4.5408506E0,2.088956E0,4.222228E0,-8.5293555E-1,4.8099794E0,7.2408967E0,4.3525877E0,1.178606E0,1.9826978E0,6.2436223E0,5.638711E0,3.6029024E0,5.9522257E0,7.7141604E0,5.5203633E0,-2.4684167E0,-3.1869273E0,6.127053E-1,7.212755E0,3.8916967E0,4.259942E-1,3.114881E0,5.9954195E0,2.018209E0,-3.7185826E0,2.3119948E0,5.5768676E0,2.7782285E0,6.0797505E0,8.645977E0,1.7071779E0,6.1166687E0,-1.4733636E0,2.4133856E0,-1.3609484E0,4.591525E0,5.423137E0,8.040149E0,6.215949E0,4.2087426E0,1.7045921E0,4.368566E0,7.587935E0,5.2709475E0,6.218166E0,8.242079E0],"categories":[],"categories_nodes":[],"categories_segments":[],"categories_sizes":[],"default_left":[1,1,1,1,1,1,1,1,1,1,1,1,1,1,1,1,1,1,1,1,1,1,1,1,1,1,1,1,1,1,1,0,0,0,0,0,0,0,0,0,0,0,0,0,0,0,0,0,0,0,0,0,0,0,0,0,0,0,0,0,0,0,0],"id":27,"left_children":[1,3,5,7,9,11,13,15,17,19,21,23,25,27,29,31,33,35,37,39,41,43,45,47,49,51,53,55,57,59,61,-1,-1,-1,-1,-1,-1,-1,-1,-1,-1,-1,-1,-1,-1,-1,-1,-1,-1,-1,-1,-1,-1,-1,-1,-1,-1,-1,-1,-1,-1,-1,-1],"loss_changes":[8.843625E3,6.2035234E3,3.9062812E3,4.250282E3,1.3155137E3,2.3447988E3,2.8031562E3,1.270656E3,2.5919414E3,9.3012573E2,1.1720039E3,1.2562849E3,7.9223145E2,1.3253555E3,1.4624062E3,4.9712115E2,1.164649E3,1.2068779E3,1.8804731E3,7.4608057E2,4.1672815E2,6.498252E2,5.869844E2,9.1823413E2,1.11037E3,4.6856757E2,4.2218848E2,8.776875E2,6.669624E2,1.0298047E3,7.2666406E2,0E0,0E0,0E0,0E0,0E0,0E0,0E0,0E0,0E0,0E0,0E0,0E0,0E0,0E0,0E0,0E0,0E0,0E0,0E0,0E0,0E0,0E0,0E0,0E0,0E0,0E0,0E0,0E0,0E0,0E0,0E0,0E0],"parents":[2147483647,0,0,1,1,2,2,3,3,4,4,5,5,6,6,7,7,8,8,9,9,10,10,11,11,12,12,13,13,14,14,15,15,16,16,17,17,18,18,19,19,20,20,21,21,22,22,23,23,24,24,25,25,26,26,27,27,28,28,29,29,30,30],"right_children":[2,4,6,8,10,12,14,16,18,20,22,24,26,28,30,32,34,36,38,40,42,44,46,48,50,52,54,56,58,60,62,-1,-1,-1,-1,-1,-1,-1,-1,-1,-1,-1,-1,-1,-1,-1,-1,-1,-1,-1,-1,-1,-1,-1,-1,-1,-1,-1,-1,-1,-1,-1,-1],"split_conditions":[-3.8068596E-1,4.4053888E-1,-8.304515E-1,-9.754165E-1,-7.9095614E-1,6.725086E-1,-1.6211945E-1,-1.0119331E0,-5.409482E-1,8.209265E-1,2.7665105E-2,-6.1844116E-1,-1.0323844E0,4.17686E-1,4.711427E-3,7.1088105E-1,-2.1232262E-2,-1.0382624E0,-4.3441224E-1,1.1223674E-2,-3.448547E-1,4.17686E-1,4.409744E-1,-2.0503256E-1,-7.192793E-1,-3.7025577E-1,1.7257032E0,4.3811053E-1,-8.7128663E-1,-6.84543E-1,-8.658461E-1,5.5203635E-1,-2.4684167E-1,-3.1869274E-1,6.127053E-2,7.212755E-1,3.8916966E-1,4.259942E-2,3.1148812E-1,5.9954196E-1,2.018209E-1,-3.7185827E-1,2.3119949E-1,5.5768675E-1,2.7782285E-1,6.0797507E-1,8.6459774E-1,1.7071779E-1,6.1166686E-1,-1.4733636E-1,2.4133857E-1,-1.3609485E-1,4.5915252E-1,5.4231375E-1,8.0401486E-1,6.215949E-1,4.2087427E-1,1.7045921E-1,4.368566E-1,7.5879353E-1,5.270948E-1,6.218166E-1,8.242079E-1],"split_indices":[25,24,24,26,42,25,26,45,45,45,26,45,26,39,31,38,7,38,31,38,13,39,28,42,7,7,25,45,28,45,19,0,0,0,0,0,0,0,0,0,0,0,0,0,0,0,0,0,0,0,0,0,0,0,0,0,0,0,0,0,0,0,0],"split_type":[0,0,0,0,0,0,0,0,0,0,0,0,0,0,0,0,0,0,0,0,0,0,0,0,0,0,0,0,0,0,0,0,0,0,0,0,0,0,0,0,0,0,0,0,0,0,0,0,0,0,0,0,0,0,0,0,0,0,0,0,0,0,0],"sum_hessian":[7.64E3,3.238E3,4.402E3,2.184E3,1.054E3,9.02E2,3.5E3,3.71E2,1.813E3,2.37E2,8.17E2,5.35E2,3.67E2,1.557E3,1.943E3,4.9E1,3.22E2,7.11E2,1.102E3,1.93E2,4.4E1,4.26E2,3.91E2,1.98E2,3.37E2,5.2E1,3.15E2,1.094E3,4.63E2,9.59E2,9.84E2,4E1,9E0,1.69E2,1.53E2,1.37E2,5.74E2,4.21E2,6.81E2,1.06E2,8.7E1,2.3E1,2.1E1,3.08E2,1.18E2,2.17E2,1.74E2,8E1,1.18E2,1.07E2,2.3E2,2.3E1,2.9E1,2.19E2,9.6E1,7.77E2,3.17E2,1.34E2,3.29E2,2.79E2,6.8E2,2.6E2,7.24E2],"tree_param":{"num_deleted":"0","num_feature":"49","num_nodes":"63","size_leaf_vector":"0"}},{"base_weights":[4.2241836E0,3.0650647E0,5.228342E0,3.7034843E0,6.545782E-1,4.5356464E0,5.8540864E0,2.188533E0,4.66602E0,-4.8626585E0,1.1744139E0,3.4219463E0,5.124102E0,6.7945347E0,5.480833E0,1.1615548E0,3.8682632E0,5.5544734E0,2.7969646E0,8.386173E0,-5.8856835E0,-1.0391791E0,2.2835095E0,2.5869148E0,5.5466466E0,5.7658286E0,4.064807E0,7.508087E0,5.6211033E0,4.7249455E0,6.132451E0,-1.1523988E0,2.095288E0,2.3228016E0,5.697309E0,6.305746E0,3.5019748E0,1.5272282E0,4.6217737E0,-2.7010396E0,-9.677988E0,3.3080602E0,-1.8758737E0,1.7524683E0,6.51803E0,1.3520087E0,4.055979E0,4.828245E0,5.9286623E0,4.7247005E0,6.3683405E0,2.5980449E0,5.387388E0,1.9789336E0,7.767289E0,6.5144367E0,5.1528583E0,4.4214835E0,7.849773E0,3.5285048E0,6.4205256E0],"categories":[],"categories_nodes":[],"categories_segments":[],"categories_sizes":[],"default_left":[1,1,1,1,1,1,1,1,1,1,1,1,1,1,1,1,1,1,1,0,1,1,1,1,1,1,1,1,1,1,1,0,0,0,0,0,0,0,0,0,0,0,0,0,0,0,0,0,0,0,0,0,0,0,0,0,0,0,0,0,0],"id":28,"left_children":[1,3,5,7,9,11,13,15,17,19,21,23,25,27,29,31,33,35,37,-1,39,41,43,45,47,49,51,53,55,57,59,-1,-1,-1,-1,-1,-1,-1,-1,-1,-1,-1,-1,-1,-1,-1,-1,-1,-1,-1,-1,-1,-1,-1,-1,-1,-1,-1,-1,-1,-1],"loss_changes":[8.836891E3,5.4345156E3,1.7393203E3,4.0625273E3,2.1309404E3,1.2525625E3,7.1290625E2,1.8706328E3,2.8190508E3,9.16807E2,1.6669214E3,1.1796821E3,8.3716016E2,4.626914E2,7.2708984E2,1.4629907E3,1.1513755E3,1.7604531E3,1.27194E3,0E0,6.9848755E2,8.3187524E2,1.00499146E3,8.743821E2,2.3244629E1,4.6296484E2,9.191006E2,5.177656E2,6.3478027E1,6.433037E2,5.932051E2,0E0,0E0,0E0,0E0,0E0,0E0,0E0,0E0,0E0,0E0,0E0,0E0,0E0,0E0,0E0,0E0,0E0,0E0,0E0,0E0,0E0,0E0,0E0,0E0,0E0,0E0,0E0,0E0,0E0,